<?xml version="1.0"?>
<opencv_storage>
<my_svm type_id="opencv-ml-svm">
  <svm_type>C_SVC</svm_type>
  <kernel><type>RBF</type>
    <gamma>8.9999999999999997e-002</gamma></kernel>
  <C>10.</C>
  <term_criteria><epsilon>1.1920928955078125e-007</epsilon>
    <iterations>2147483647</iterations></term_criteria>
  <var_all>3780</var_all>
  <var_count>3780</var_count>
  <class_count>2</class_count>
  <class_labels type_id="opencv-matrix">
    <rows>1</rows>
    <cols>2</cols>
    <dt>i</dt>
    <data>
      0 1</data></class_labels>
  <sv_total>8</sv_total>
  <support_vectors>
    <_>
      1.99076131e-001 3.27046722e-001 3.27046722e-001 8.27606842e-002
      5.60038574e-002 1.83453411e-002 3.35999131e-002 6.64273724e-002
      1.51871130e-001 2.12480173e-001 2.99659044e-001 3.27046722e-001
      7.62153640e-002 1.23404205e-001 4.45120558e-002 1.07169941e-001
      1.59494862e-001 2.17216879e-001 1.84894755e-001 2.48346925e-001
      6.61657304e-002 5.29623739e-002 5.83408140e-002 3.83055992e-002
      1.39832675e-001 1.87231809e-001 2.29073822e-001 8.75551999e-002
      4.26811166e-002 3.20850089e-002 2.50805914e-002 5.01857884e-002
      3.37676667e-002 1.99623182e-001 2.54195124e-001 1.44757658e-001
      2.92312115e-001 2.02900067e-001 6.66750222e-002 1.84891820e-002
      6.39484674e-002 2.07165983e-002 6.45504445e-002 1.40398994e-001
      2.40515426e-001 2.92312115e-001 2.92312115e-001 1.32545292e-001
      3.37377563e-002 2.59515662e-002 1.85239632e-002 7.82668218e-003
      4.26111296e-002 1.48207143e-001 1.59959033e-001 7.93782175e-002
      4.37464342e-002 2.06802823e-002 3.20339352e-002 2.97618806e-002
      1.43054113e-001 2.66629815e-001 1.40919462e-001 2.92312115e-001
      2.92312115e-001 2.92312115e-001 2.06946373e-001 1.69738546e-001
      5.76574355e-002 5.11608161e-002 1.97851792e-001 2.10604280e-001
      2.80858964e-001 2.80858964e-001 1.51249334e-001 2.64306255e-002
      3.03330310e-002 2.12740991e-002 1.29407109e-003 7.17939204e-003
      9.61932540e-002 2.80858964e-001 2.80858964e-001 9.87595543e-002
      2.13611666e-002 2.21592300e-002 1.77546889e-002 3.53169511e-003
      6.50356943e-003 1.15393221e-001 2.80858964e-001 2.80858964e-001
      2.80858964e-001 2.13090062e-001 2.32953459e-001 8.31695348e-002
      3.19826454e-002 6.37378842e-002 1.37651473e-001 2.21488684e-001
      2.61289299e-001 2.53975898e-001 1.34064659e-001 1.56286880e-001
      1.50234386e-001 5.99011891e-002 1.85653344e-002 7.08552450e-002
      2.84247518e-001 2.84247518e-001 9.91544351e-002 2.84070987e-002
      1.59105137e-002 8.42876919e-003 1.76896399e-003 1.58890747e-002
      1.83639631e-001 2.84247518e-001 2.84247518e-001 1.56711146e-001
      3.04153804e-002 1.54246893e-002 7.58728420e-004 0. 8.59838258e-003
      2.71804214e-001 2.33087733e-001 2.15162426e-001 1.96373910e-001
      1.70922384e-001 1.01847865e-001 1.58767596e-001 3.40668857e-002
      7.75877759e-003 1.01521663e-001 2.84247518e-001 2.84247518e-001
      2.79274046e-001 2.05546543e-001 8.11533704e-002 4.45801392e-002
      5.89738321e-003 4.97383066e-003 1.52901024e-001 2.76728451e-001
      1.49175167e-001 6.97357506e-002 4.50821482e-002 4.74957936e-002
      3.71764489e-002 5.61874546e-002 5.10176970e-003 1.15122944e-001
      2.83699423e-001 2.83699423e-001 2.29114175e-001 7.74423108e-002
      6.54426888e-002 9.93064567e-002 1.51496753e-001 2.73568407e-002
      2.83699423e-001 1.60290733e-001 1.17050335e-001 1.07771985e-001
      7.08516166e-002 5.75354248e-002 3.72777283e-002 7.21171424e-002
      4.40028030e-003 7.36824870e-002 2.83699423e-001 2.83699423e-001
      2.83699423e-001 8.37264806e-002 1.81923673e-001 1.32843047e-001
      2.83699423e-001 4.48794514e-002 2.83699423e-001 2.73818225e-001
      1.75677121e-001 1.19693711e-001 3.18501815e-002 1.26029579e-002
      1.11909518e-002 1.74298249e-002 3.75167169e-002 2.73818225e-001
      2.73818225e-001 1.76556543e-001 1.12645313e-001 6.13482445e-002
      5.77230416e-002 4.24231514e-002 7.70691708e-002 7.44346231e-002
      2.73818225e-001 2.73818225e-001 1.66790843e-001 2.46854186e-001
      4.12125103e-002 9.03245881e-002 3.53979915e-002 1.43929541e-001
      8.95311534e-002 2.73818225e-001 2.73818225e-001 2.48225719e-001
      1.95635155e-001 4.40070741e-002 4.62005585e-002 2.96333004e-002
      1.53334051e-001 1.67538986e-001 2.73818225e-001 2.61327058e-001
      1.42745510e-001 8.39834511e-002 7.25409985e-002 8.82855207e-002
      5.35199158e-002 1.41134962e-001 1.12343155e-001 2.61327058e-001
      2.61327058e-001 1.83827922e-001 8.10987428e-002 6.25986606e-002
      5.15884645e-002 2.65475828e-002 2.08781287e-001 1.20344251e-001
      2.61327058e-001 2.61327058e-001 1.71811640e-001 7.06260726e-002
      5.52828796e-002 5.10541014e-002 3.15643214e-002 1.54797629e-001
      1.88606963e-001 2.61327058e-001 2.61327058e-001 1.98382139e-001
      6.09703362e-002 8.34233686e-002 7.94235617e-002 3.81321348e-002
      2.61327058e-001 2.06516430e-001 2.61327058e-001 2.66344875e-001
      1.43297061e-001 4.31666225e-002 7.53409937e-002 7.76481107e-002
      4.50303927e-002 1.98732957e-001 8.34363773e-002 2.66344875e-001
      2.66344875e-001 7.32719898e-002 2.39248481e-002 8.79682750e-002
      1.31906644e-001 9.32544321e-002 1.32941246e-001 1.26468614e-001
      2.66344875e-001 2.66344875e-001 2.14889407e-001 6.01535365e-002
      9.18537676e-002 1.79525778e-001 6.32740408e-002 2.40577117e-001
      1.38387918e-001 2.66344875e-001 2.62782931e-001 8.33248049e-002
      3.01869828e-002 1.10134304e-001 2.31042951e-001 9.70624089e-002
      8.63583609e-002 1.18059732e-001 2.66344875e-001 2.71959513e-001
      7.23751932e-002 1.29492544e-002 4.00108546e-002 8.41200501e-002
      1.19127765e-001 1.80278942e-001 1.12599067e-001 2.71959513e-001
      2.71959513e-001 1.21904314e-001 5.13470685e-003 4.11707759e-002
      1.12027161e-001 1.02788121e-001 2.71959513e-001 1.63662046e-001
      2.71959513e-001 2.06894442e-001 5.26852831e-002 3.03175114e-002
      8.26380253e-002 1.00644365e-001 1.42204806e-001 1.16706870e-001
      9.53377187e-002 2.71959513e-001 2.71959513e-001 1.80379719e-001
      5.22541739e-002 9.72915515e-002 1.59944206e-001 1.34109795e-001
      2.50431120e-001 9.07934383e-002 2.71959513e-001 2.56876200e-001
      4.05104868e-002 3.49707296e-003 3.71659063e-002 5.84861450e-002
      3.06358915e-002 2.22986177e-001 1.26374111e-001 2.56876200e-001
      2.56876200e-001 1.28463767e-002 5.66961197e-003 2.15722825e-002
      1.89550351e-002 2.72449851e-002 2.50440925e-001 2.02211425e-001
      2.56876200e-001 2.56876200e-001 1.02287091e-001 5.62590137e-002
      1.14251770e-001 1.15074553e-001 8.04320052e-002 1.99828148e-001
      1.01195239e-001 2.56876200e-001 2.56876200e-001 8.70395228e-002
      1.29855484e-001 1.25634521e-001 1.12419516e-001 1.44316047e-001
      2.56876200e-001 2.34203368e-001 2.56876200e-001 2.69138664e-001
      3.95558588e-002 6.17113989e-003 1.55984862e-002 2.30132341e-002
      3.95641960e-002 2.18434393e-001 2.52704471e-001 2.69138664e-001
      1.05591796e-001 2.38184538e-002 3.64160561e-003 1.42024532e-002
      2.82307025e-002 3.44164222e-002 8.28623995e-002 2.18947187e-001
      1.39955834e-001 2.69138664e-001 1.38820931e-001 7.18560517e-002
      7.29414448e-002 1.21953875e-001 1.73940420e-001 2.69138664e-001
      2.59594828e-001 2.69138664e-001 2.69138664e-001 9.26858112e-002
      1.51320463e-002 3.35727185e-002 7.74965063e-002 1.21936686e-001
      2.08567113e-001 2.64288127e-001 2.69138664e-001 3.71977091e-002
      7.10806577e-003 6.81349775e-003 9.75769665e-003 1.51185608e-002
      1.70481373e-002 6.47405088e-002 2.69547164e-001 2.29078189e-001
      5.52941337e-002 1.79181341e-002 1.10468306e-002 2.38889772e-002
      2.91084778e-002 3.28081772e-002 5.10384329e-002 1.87956169e-001
      1.81654915e-001 2.69547164e-001 1.63451180e-001 9.10734534e-002
      3.86059694e-002 5.59618846e-002 1.41971633e-001 2.68823236e-001
      2.69547164e-001 2.69547164e-001 2.69547164e-001 2.69547164e-001
      1.67194009e-001 2.05343664e-001 6.68225437e-002 1.93114460e-001
      1.98003635e-001 2.64365643e-001 2.69547164e-001 1.12133481e-001
      3.03181615e-002 1.00697549e-002 2.94773411e-002 5.62524162e-002
      4.04578894e-002 2.32837461e-002 6.65703043e-002 1.17204875e-001
      1.46717101e-001 4.30189036e-002 1.94437932e-002 3.04821450e-002
      8.02851319e-002 3.44397910e-002 1.74912401e-002 6.44820705e-002
      1.36500522e-001 3.14615816e-001 2.71684527e-001 8.89584497e-002
      2.56190270e-001 6.29215091e-002 2.54507899e-001 1.00126453e-001
      6.95578307e-002 3.14615816e-001 3.14615816e-001 2.55374402e-001
      4.56107520e-002 3.14615816e-001 4.08171378e-002 3.14615816e-001
      9.70835909e-002 1.50492266e-002 3.14615816e-001 9.22572166e-002
      2.37582419e-002 1.05533423e-002 5.99370804e-003 4.72078398e-002
      1.40208816e-002 3.29081118e-002 1.29122987e-001 1.32204518e-001
      1.26513451e-001 1.36992615e-002 1.01682926e-002 2.25728322e-002
      2.89428774e-002 3.60796079e-002 1.88390151e-001 3.07552367e-001
      2.06773117e-001 3.07552367e-001 1.78908616e-001 2.88044345e-002
      2.49825582e-001 2.32447591e-002 2.23648131e-001 6.74947053e-002
      1.37171848e-002 3.07552367e-001 3.07552367e-001 1.76898882e-001
      4.91850488e-002 3.07552367e-001 1.86445937e-002 2.79475063e-001
      1.29892603e-001 7.57027194e-002 3.07552367e-001 9.72511321e-002
      1.71865728e-002 9.17542260e-003 2.24656649e-002 7.54090399e-003
      3.45995873e-002 2.18032122e-001 2.80760616e-001 1.51195779e-001
      1.54563725e-001 3.32396962e-002 4.10656147e-002 1.02257421e-002
      8.40352476e-003 5.56513295e-002 2.80760616e-001 2.80760616e-001
      1.51817843e-001 2.80760616e-001 1.06487237e-001 5.63230924e-002
      2.26512104e-001 9.31789260e-003 1.44030809e-001 1.49319798e-001
      1.47630677e-001 2.80760616e-001 2.80760616e-001 1.12724707e-001
      1.83761835e-001 8.96987170e-002 3.64015736e-002 1.22726411e-001
      2.29404956e-001 2.36929104e-001 2.80760616e-001 9.26531106e-002
      1.16469055e-001 1.74191162e-001 2.29602352e-001 1.62140056e-001
      8.39542374e-002 2.43167683e-001 2.17034161e-001 1.86328992e-001
      1.12877507e-002 5.22929803e-002 1.79586828e-001 1.49327531e-001
      8.33710209e-002 8.24554786e-002 2.57851005e-001 2.57851005e-001
      1.56339601e-001 1.32082939e-001 8.88763294e-002 1.29830226e-001
      1.18075736e-001 6.40116408e-002 9.08218771e-002 2.18749836e-001
      2.57851005e-001 2.57851005e-001 1.33398950e-001 1.02976486e-001
      1.98752433e-001 1.24460571e-001 4.49841805e-002 5.97768426e-002
      1.34413764e-001 2.57851005e-001 2.57851005e-001 1.56396572e-002
      5.69647998e-002 8.89319852e-002 4.02479395e-002 8.19365606e-002
      2.47272104e-002 6.71979263e-002 1.41390711e-001 6.94422573e-002
      1.81123391e-001 2.70030588e-001 2.70030588e-001 2.48320073e-001
      2.70030588e-001 2.82091442e-002 3.06914132e-002 1.72491983e-001
      1.73581973e-001 6.04779124e-002 6.93695173e-002 8.43247175e-002
      3.72881256e-002 1.19968481e-001 1.68483220e-002 3.50823998e-002
      2.22802699e-001 2.37319082e-001 1.90113425e-001 2.70030588e-001
      2.70030588e-001 1.78476810e-001 2.70030588e-001 2.65173968e-002
      2.58249547e-002 2.70030588e-001 2.70030588e-001 1.79079011e-001
      2.55999118e-001 2.55999118e-001 2.35658377e-001 2.35915154e-001
      3.66862863e-002 2.22400948e-002 8.43787491e-002 1.27667800e-001
      5.15040904e-002 1.12521812e-001 1.33275405e-001 1.30959690e-001
      1.42173469e-001 8.04597810e-002 6.19177707e-002 3.11320871e-002
      3.59164923e-002 2.30072871e-001 2.44328722e-001 2.45894566e-001
      1.72453970e-001 1.57013088e-001 3.50440815e-002 2.41884366e-002
      2.55999118e-001 2.55999118e-001 2.22133189e-001 6.85246214e-002
      5.19305766e-002 9.67062861e-002 8.58962983e-002 5.35985194e-002
      2.16939807e-001 2.55999118e-001 2.55999118e-001 2.57464200e-002
      7.19943196e-002 1.01277128e-001 1.87856600e-001 1.71980813e-001
      1.35173842e-001 8.86206105e-002 3.24438699e-002 1.61978900e-002
      3.76387909e-002 1.44432336e-001 1.63303047e-001 2.05154508e-001
      1.25317931e-001 7.10936487e-002 6.06616698e-002 3.09235416e-002
      3.13602686e-002 2.51019359e-001 5.06524183e-002 5.73453680e-002
      9.76068899e-002 1.25567362e-001 1.10018209e-001 2.87379444e-001
      2.87379444e-001 2.87379444e-001 2.87379444e-001 2.03320101e-001
      8.83457810e-002 9.23149660e-002 9.95320603e-002 1.39142558e-001
      2.87379444e-001 2.87379444e-001 2.87379444e-001 6.17734492e-002
      1.33609310e-001 1.57284603e-001 1.32869542e-001 7.17206746e-002
      5.20761237e-002 4.85677496e-002 1.57844983e-002 3.53061296e-002
      1.86868280e-001 1.64172098e-001 2.68339962e-001 1.17862180e-001
      2.68339962e-001 1.20084018e-001 2.68339962e-001 1.33359537e-001
      2.10871965e-001 2.68339962e-001 1.85084760e-001 6.19210452e-002
      6.75309151e-002 6.86987266e-002 1.39311910e-001 2.21721902e-001
      1.73643976e-001 2.68339962e-001 2.68339962e-001 8.75068232e-002
      5.01586460e-002 6.28720596e-002 1.12436302e-001 1.41438931e-001
      1.74298674e-001 2.04508111e-001 2.68339962e-001 1.73677564e-001
      7.28379339e-002 1.61767036e-001 3.22783142e-002 1.26496509e-001
      4.19558249e-002 2.73941010e-001 2.24973872e-001 2.71916866e-001
      2.73941010e-001 1.19070351e-001 1.32761732e-001 2.60651913e-002
      4.72308695e-002 2.44100597e-002 2.73941010e-001 2.73941010e-001
      2.73941010e-001 1.56893283e-001 2.89475620e-002 1.33858128e-002
      1.65893622e-002 3.04984078e-002 1.78046431e-002 9.44556445e-002
      1.29130796e-001 2.04399377e-001 2.73941010e-001 3.91567647e-002
      1.90525651e-002 1.41219730e-002 1.67329796e-002 1.36768268e-002
      2.43960530e-001 2.73941010e-001 2.73941010e-001 2.53610581e-001
      9.07343403e-002 3.82198691e-002 3.92180383e-002 3.81600223e-002
      2.13305485e-002 2.09707066e-001 2.29414418e-001 2.53610581e-001
      2.53610581e-001 1.38847545e-001 5.51607460e-002 7.51638934e-002
      8.44942033e-002 4.64190431e-002 2.35579491e-001 2.53610581e-001
      2.53610581e-001 2.34257951e-001 5.66835217e-002 1.35831572e-002
      1.29757598e-002 1.76260732e-002 2.79940441e-002 1.92313984e-001
      1.91008866e-001 2.53610581e-001 2.53610581e-001 1.08230300e-001
      3.70673388e-002 2.79069636e-002 3.68214771e-002 5.95015995e-002
      2.53610581e-001 2.53610581e-001 2.53610581e-001 2.60485739e-001
      1.54832676e-001 5.83852306e-002 6.94010034e-002 9.54991132e-002
      5.65043725e-002 1.43095613e-001 2.05791369e-001 2.60485739e-001
      2.60485739e-001 1.32275969e-001 4.70701791e-002 8.31256583e-002
      9.36202407e-002 9.49003771e-002 1.13246590e-001 1.56610280e-001
      2.60485739e-001 2.60485739e-001 1.48008570e-001 4.81375903e-002
      4.81950268e-002 3.36330310e-002 5.78633025e-002 2.16661215e-001
      2.31340051e-001 2.60485739e-001 2.60485739e-001 2.02097490e-001
      8.91048089e-002 9.80570093e-002 4.56009060e-002 9.15318429e-002
      1.52718350e-001 2.04516545e-001 2.60485739e-001 2.24171788e-001
      1.37972713e-001 5.61993308e-002 6.36563748e-002 4.74041216e-002
      8.63407925e-002 9.88374799e-002 1.05991952e-001 1.84595481e-001
      2.43611619e-001 1.98190436e-001 1.36362940e-001 7.37470090e-002
      7.27170333e-002 5.60461767e-002 7.43980333e-002 8.46808031e-002
      2.06634372e-001 2.43611619e-001 2.43611619e-001 1.56866446e-001
      1.26647204e-001 1.15761429e-001 9.36562046e-002 1.75217837e-001
      2.14989915e-001 2.43611619e-001 2.43611619e-001 2.35173523e-001
      2.43611619e-001 1.60896733e-001 1.29305869e-001 6.14931062e-002
      1.13709435e-001 2.43611619e-001 2.43611619e-001 2.73700535e-001
      1.54821709e-001 1.41013011e-001 8.74675065e-002 5.92460521e-002
      4.30993177e-002 5.42525277e-002 7.78665990e-002 2.25197092e-001
      2.73700535e-001 1.47830710e-001 2.45885924e-001 1.27758116e-001
      1.54488727e-001 1.29952461e-001 1.81223586e-001 1.38117984e-001
      2.73700535e-001 2.73700535e-001 1.07961595e-001 1.23223938e-001
      6.30201548e-002 2.69965976e-002 1.64117664e-002 2.38697510e-002
      1.59212977e-001 2.73700535e-001 2.73700535e-001 8.29109102e-002
      9.48073938e-002 5.17484099e-002 7.96926543e-002 7.82038942e-002
      2.47473508e-001 1.22476980e-001 2.73700535e-001 2.46881321e-001
      7.14012682e-002 7.61264637e-002 5.62675558e-002 1.09382965e-001
      9.91975963e-002 1.84969693e-001 1.24888614e-001 2.45863304e-001
      2.74150848e-001 5.83070219e-002 1.76443420e-002 1.61132459e-002
      3.81494351e-002 6.34217858e-002 2.56896138e-001 1.29413337e-001
      2.54055560e-001 2.74150848e-001 4.94619943e-002 3.36443372e-002
      4.32833098e-002 9.24149603e-002 9.96296182e-002 2.74150848e-001
      1.34666562e-001 2.74150848e-001 2.74150848e-001 5.93042076e-002
      1.58773884e-002 2.21202113e-002 4.70795222e-002 6.29631802e-002
      2.74150848e-001 2.34193355e-001 2.74150848e-001 2.67176062e-001
      5.38359508e-002 2.24990509e-002 6.59824628e-003 5.88374957e-003
      6.10075258e-002 2.72298008e-001 7.42767677e-002 2.14063630e-001
      2.81189054e-001 8.75902921e-002 3.78957838e-002 8.96498784e-002
      1.91099476e-002 7.69731477e-002 2.13609964e-001 6.15757741e-002
      2.81189054e-001 2.81189054e-001 4.26719859e-002 8.10197834e-003
      4.88911476e-003 1.23527488e-002 5.18521406e-002 2.81189054e-001
      2.12516591e-001 2.81189054e-001 2.81189054e-001 5.45260832e-002
      2.10818369e-002 5.62161840e-002 2.17299499e-002 5.06569706e-002
      2.81189054e-001 1.67900413e-001 2.81189054e-001 3.01750034e-001
      1.16188526e-001 3.70219536e-002 1.72074780e-001 3.13517079e-002
      1.35843039e-001 1.33488968e-001 7.56668597e-002 3.01750034e-001
      3.01750034e-001 1.14190608e-001 1.74769256e-002 1.84265912e-001
      2.84429155e-002 1.58855215e-001 7.51510784e-002 2.96329875e-002
      3.01750034e-001 3.01750034e-001 1.06067419e-001 3.40133682e-002
      8.31154808e-002 2.25556362e-002 6.12230562e-002 2.08711058e-001
      1.63425997e-001 3.01750034e-001 3.01750034e-001 1.05832696e-001
      6.93518594e-002 5.95980547e-002 5.83561733e-002 7.66145140e-002
      1.12978593e-001 5.97055294e-002 2.30816722e-001 2.97946662e-001
      2.02863157e-001 3.37267891e-002 2.91685343e-001 4.36033458e-002
      2.18218997e-001 6.07788302e-002 1.21414931e-002 2.97946662e-001
      2.97946662e-001 1.87740013e-001 6.82408661e-002 2.88967192e-001
      3.58144902e-002 1.90325812e-001 7.97433257e-002 5.74934296e-002
      2.97946662e-001 2.97946662e-001 1.13296248e-001 1.05342947e-001
      9.69749689e-002 9.63508189e-002 7.79936016e-002 1.81270167e-002
      1.87324695e-002 2.24970341e-001 2.09588096e-001 9.64841172e-002
      8.95266235e-002 8.87424201e-002 5.20757399e-002 2.71570571e-002
      3.39955837e-002 6.31055459e-002 1.55380368e-001 3.01095933e-001
      1.40802592e-001 9.74513814e-002 2.91439205e-001 6.37611598e-002
      1.45916879e-001 1.16992675e-001 1.25691518e-001 3.01095933e-001
      3.01095933e-001 1.07964300e-001 1.39882445e-001 1.48552254e-001
      1.88675985e-001 1.18299432e-001 1.54641256e-001 2.18591005e-001
      3.01095933e-001 2.04441935e-001 8.25277567e-002 7.99811855e-002
      1.10321283e-001 6.44817278e-002 2.65492201e-002 6.27249777e-002
      1.05691254e-001 1.74464241e-001 2.84000814e-001 7.74517730e-002
      3.27550657e-002 9.17012393e-002 1.13700032e-001 5.32979704e-002
      9.21269879e-002 1.48757488e-001 1.74847648e-001 7.97495320e-002
      3.75628732e-002 3.98744531e-002 3.15743163e-002 4.93180603e-002
      1.34044617e-001 1.83050469e-001 2.47911438e-001 2.26010054e-001
      2.53890306e-001 8.65253136e-002 8.05282891e-002 3.51956002e-002
      4.30870131e-002 7.48737752e-002 1.32530496e-001 2.69045055e-001
      2.81968385e-001 2.81968385e-001 2.68881768e-001 8.80931020e-002
      3.64257060e-002 3.02939396e-002 9.03525725e-002 1.21496081e-001
      1.36356473e-001 1.60059735e-001 2.81968385e-001 2.81968385e-001
      1.03033982e-001 2.46170498e-002 2.87412480e-002 5.50111607e-002
      1.09560624e-001 2.63145268e-001 2.81968385e-001 1.22250609e-001
      3.98073085e-002 3.56681235e-002 3.70851606e-002 4.62064892e-002
      1.83570590e-002 3.26804519e-002 8.68107006e-002 1.59760281e-001
      2.48534545e-001 2.01384455e-001 2.48534545e-001 1.22784786e-001
      1.10575512e-001 4.39969636e-002 7.28461668e-002 1.51054054e-001
      2.48534545e-001 2.26570815e-001 5.94263151e-002 3.78799923e-002
      7.02344850e-002 9.25308615e-002 9.89894420e-002 6.94840327e-002
      1.34077758e-001 2.48534545e-001 2.48534545e-001 2.39939943e-001
      2.48534545e-001 2.27773771e-001 2.29047373e-001 2.48534545e-001
      2.48534545e-001 1.53564423e-001 2.48534545e-001 2.25111559e-001
      1.35333091e-001 1.53180152e-001 4.02549654e-002 2.90498957e-002
      1.55153926e-002 2.14986410e-002 9.12415683e-002 2.48827934e-001
      2.48993441e-001 6.48966506e-002 4.08110358e-002 1.57431681e-002
      2.55331304e-002 6.18086196e-002 2.25603804e-001 2.30239078e-001
      2.48993441e-001 2.48993441e-001 2.03774735e-001 2.03309774e-001
      7.55680874e-002 5.53302281e-002 9.51783732e-002 1.88333392e-001
      7.62500316e-002 2.48993441e-001 2.48993441e-001 2.00202912e-001
      1.27474904e-001 4.28338684e-002 7.72255436e-002 1.22720361e-001
      2.48993441e-001 2.48993441e-001 2.48993441e-001 9.07385871e-002
      2.23494228e-002 2.48360597e-002 8.30142759e-003 1.96608976e-002
      9.67596620e-002 2.32345745e-001 2.02010840e-001 1.71945736e-001
      2.32345745e-001 7.89264962e-002 6.24544024e-002 2.58606318e-002
      2.07775608e-002 8.41286033e-002 2.26430878e-001 1.24026157e-001
      1.74298644e-001 2.32345745e-001 1.32723555e-001 1.64949998e-001
      5.80887571e-002 1.05278730e-001 1.75580263e-001 2.32345745e-001
      2.32345745e-001 2.32345745e-001 2.32345745e-001 1.82240471e-001
      2.32345745e-001 1.60697818e-001 1.28730193e-001 1.82339475e-001
      2.32345745e-001 2.32345745e-001 2.32345745e-001 2.43617088e-001
      9.76796970e-002 3.75684835e-002 2.17963140e-002 2.86811870e-002
      4.67691682e-002 1.68971986e-001 1.00415535e-001 1.75401226e-001
      2.43617088e-001 5.42916432e-002 2.33074818e-002 1.02960989e-002
      3.96960452e-002 2.87661329e-002 5.76834865e-002 8.99419934e-002
      2.19944760e-001 2.43617088e-001 2.43617088e-001 2.43617088e-001
      2.04937965e-001 1.46904454e-001 1.55036986e-001 2.43617088e-001
      2.10662752e-001 2.43617088e-001 2.43617088e-001 2.43617088e-001
      2.43617088e-001 1.42672196e-001 1.22261845e-001 6.75465837e-002
      7.73252770e-002 1.31344795e-001 2.43617088e-001 2.76757449e-001
      8.10048431e-002 3.62194702e-002 1.35066248e-002 2.05485113e-002
      1.03108604e-002 2.51508020e-002 9.62714925e-002 2.76757449e-001
      2.62305588e-001 1.06646515e-001 2.18217708e-002 1.18178092e-002
      3.61324549e-002 3.11085228e-002 4.79724668e-002 1.38792828e-001
      2.76757449e-001 2.76757449e-001 2.76757449e-001 2.19443262e-001
      6.09160475e-002 6.53547645e-002 2.08384823e-002 4.40372936e-002
      1.11966103e-001 2.76757449e-001 2.76757449e-001 2.76757449e-001
      2.15021417e-001 2.10185666e-002 1.09005645e-001 5.41917309e-002
      1.29407719e-001 1.88352212e-001 2.76757449e-001 2.08960250e-001
      5.03788590e-002 6.30058954e-003 6.30150968e-003 2.58115754e-002
      2.44263038e-002 5.47711663e-002 1.13331631e-001 2.80069649e-001
      2.80069649e-001 6.72007650e-002 1.54920574e-002 1.27453748e-002
      1.54850278e-002 2.55553778e-002 1.41535148e-001 1.16673522e-001
      2.80069649e-001 2.80069649e-001 2.80069649e-001 7.51228333e-002
      1.14991954e-002 5.86910173e-002 2.67738178e-002 1.34836987e-001
      2.18608737e-001 2.80069649e-001 2.80069649e-001 9.75391343e-002
      8.39207470e-002 8.36344957e-002 9.36665237e-002 4.16388139e-002
      2.80069649e-001 2.80069649e-001 2.80069649e-001 2.64285773e-001
      8.58028010e-002 2.17789002e-002 1.17973285e-002 1.40860416e-002
      2.81978417e-002 2.17049569e-001 1.25117406e-001 2.64285773e-001
      2.64285773e-001 1.25436202e-001 5.32459170e-002 4.91676517e-002
      5.37384823e-002 3.59260812e-002 1.25230551e-001 1.28494814e-001
      2.64285773e-001 1.85736686e-001 6.00606352e-002 1.05448209e-001
      8.16587284e-002 1.05834521e-001 7.89269283e-002 2.64285773e-001
      2.64285773e-001 2.64285773e-001 2.64285773e-001 8.46774802e-002
      5.56018353e-002 5.88773303e-002 9.94045660e-002 7.43866190e-002
      2.64285773e-001 2.59480685e-001 2.64285773e-001 1.91160783e-001
      1.26105532e-001 1.24115437e-001 1.35360986e-001 1.87053233e-001
      9.24388245e-002 1.26322359e-001 1.53673455e-001 2.27959856e-001
      1.82557672e-001 1.09937482e-001 1.67494968e-001 1.75741270e-001
      1.98283225e-001 1.45481601e-001 1.43483534e-001 1.79535285e-001
      2.27959856e-001 2.18642160e-001 8.53288248e-002 6.61766231e-002
      1.11350723e-001 1.46249250e-001 1.01618335e-001 1.78976387e-001
      1.30132914e-001 2.27959856e-001 2.27959856e-001 7.78615847e-002
      7.44173750e-002 1.20708443e-001 1.64191231e-001 2.03353330e-001
      2.27959856e-001 2.27959856e-001 2.27959856e-001 2.88735598e-001
      6.56204149e-002 7.09303617e-002 7.01316148e-002 5.36403432e-002
      7.30291680e-002 7.52234831e-002 1.52541414e-001 2.88735598e-001
      2.88735598e-001 6.17483482e-002 2.12888345e-002 1.31457299e-002
      1.36134084e-002 4.92643528e-002 2.39025652e-001 8.67841989e-002
      2.88735598e-001 2.88735598e-001 1.36892959e-001 4.25957255e-002
      4.95959669e-002 7.68606365e-002 1.20865978e-001 2.34930471e-001
      2.66073287e-001 2.88735598e-001 2.88735598e-001 1.14396736e-001
      4.86511849e-002 2.42121145e-002 3.93050350e-002 3.71135622e-002
      3.62613089e-002 1.31396458e-001 2.88735598e-001 2.88798094e-001
      5.14394641e-002 1.91763602e-002 2.55899187e-002 2.91472767e-002
      7.02646002e-002 2.87506700e-001 6.45098537e-002 2.88798094e-001
      2.88798094e-001 9.39575136e-002 1.71628073e-002 2.64557172e-002
      2.48927269e-002 5.09024896e-002 2.88798094e-001 2.23700956e-001
      2.88798094e-001 2.60295480e-001 6.75099641e-002 6.20520115e-002
      4.54445854e-002 3.39354910e-002 2.28440352e-002 3.58230881e-002
      1.06742643e-001 2.88798094e-001 2.88798094e-001 1.41302362e-001
      1.52288884e-001 1.07938729e-001 7.72963762e-002 3.74270268e-002
      7.68478960e-002 9.92935598e-002 2.88798094e-001 2.76449323e-001
      1.31466851e-001 2.04202235e-002 2.38821637e-002 4.22384329e-002
      3.68813500e-002 2.76449323e-001 2.76449323e-001 2.76449323e-001
      2.76449323e-001 1.43307626e-001 8.53295475e-002 1.11783057e-001
      7.61130303e-002 4.57174033e-002 2.49070823e-001 2.52422661e-001
      2.76449323e-001 2.68233329e-001 1.38467178e-001 8.63177031e-002
      5.48610203e-002 6.42271042e-002 4.15928140e-002 1.01761892e-001
      1.23353764e-001 2.42267922e-001 2.16541767e-001 1.13103844e-001
      6.62333965e-002 8.08819383e-002 7.66713172e-002 2.48705186e-002
      8.78658965e-002 1.43426627e-001 2.14995906e-001 2.76535958e-001
      2.28157029e-001 1.59890383e-001 1.78632826e-001 9.61751267e-002
      5.29896915e-002 1.95830405e-001 1.71538666e-001 2.76535958e-001
      2.76535958e-001 2.02085510e-001 1.94434345e-001 1.00722469e-001
      1.06938623e-001 6.53376952e-002 1.08624741e-001 7.86008388e-002
      1.86942667e-001 2.76535958e-001 1.78325117e-001 1.49961114e-001
      1.57960221e-001 1.27110228e-001 3.56903896e-002 7.79716447e-002
      1.21063314e-001 1.89551637e-001 2.73439676e-001 1.44568786e-001
      1.03139274e-001 8.92703161e-002 5.92275448e-002 3.80152389e-002
      6.71291947e-002 1.20539695e-001 2.30141878e-001 2.67902553e-001
      1.99070603e-001 2.18674228e-001 1.06651857e-001 1.15827046e-001
      6.90333918e-002 5.57794087e-002 7.48111233e-002 2.50468791e-001
      2.67902553e-001 1.88529342e-001 1.35763422e-001 1.12370893e-001
      6.56650290e-002 3.64296623e-002 9.16978046e-002 7.11666048e-002
      2.67902553e-001 2.67902553e-001 1.99482650e-001 9.36074853e-002
      4.72452529e-002 4.48504277e-002 3.77174988e-002 9.27291438e-002
      1.69804037e-001 2.67902553e-001 2.67902553e-001 2.51794636e-001
      1.13694854e-001 4.77108099e-002 5.50600253e-002 5.78421392e-002
      1.61543518e-001 1.34269685e-001 2.67902553e-001 2.42727086e-001
      1.69798449e-001 1.11130796e-001 1.44215167e-001 3.93799692e-002
      3.77588607e-002 9.74434838e-002 1.25748545e-001 2.42727086e-001
      2.42727086e-001 1.46702558e-001 7.60831013e-002 1.22642107e-001
      7.46680945e-002 4.66639102e-002 8.84368271e-002 1.84656158e-001
      2.03947827e-001 2.42727086e-001 2.42727086e-001 1.36886880e-001
      4.24588993e-002 9.54177007e-002 9.50546488e-002 1.75431594e-001
      1.31399363e-001 2.42727086e-001 2.42727086e-001 2.42727086e-001
      2.41304711e-001 9.40211490e-002 1.99624777e-001 9.97341499e-002
      1.28294975e-001 1.64993644e-001 2.34714106e-001 2.81863421e-001
      2.09638283e-001 9.56108943e-002 4.41584811e-002 1.10532194e-002
      2.67819837e-002 2.34083142e-002 5.96285313e-002 2.29859442e-001
      2.81863421e-001 2.61376292e-001 1.40274197e-001 5.69231026e-002
      3.35694812e-002 3.04604303e-002 3.48200426e-002 1.20373957e-001
      2.81863421e-001 2.78099179e-001 9.54041556e-002 5.66912293e-002
      5.02245612e-002 4.68742102e-002 9.67940092e-002 1.47845641e-001
      2.01054215e-001 2.81863421e-001 2.81863421e-001 2.14992419e-001
      1.45527095e-001 9.42945629e-002 6.72929734e-002 8.48078057e-002
      1.24695346e-001 1.70604378e-001 2.81863421e-001 1.76486537e-001
      6.12772964e-002 5.92143126e-002 9.75416899e-002 1.32394224e-001
      1.03299879e-001 6.09292127e-002 1.59718767e-001 2.35413775e-001
      1.88970044e-001 7.43200704e-002 1.06784061e-001 1.48998156e-001
      2.35413775e-001 2.35413775e-001 2.35413775e-001 1.97657123e-001
      2.35413775e-001 2.35413775e-001 1.50533214e-001 1.88675031e-001
      2.34828770e-001 1.44209564e-001 3.02680526e-002 2.95715928e-002
      6.92031831e-002 2.16758847e-001 2.35413775e-001 7.95601755e-002
      1.70364246e-001 2.35413775e-001 2.35413775e-001 1.23956993e-001
      4.52706777e-002 9.13832784e-002 1.75322518e-001 2.23283261e-001
      1.11406036e-001 8.58342052e-002 4.67084572e-002 5.96458167e-002
      9.55170691e-002 2.16330931e-001 1.33208558e-001 2.73419678e-001
      2.73419678e-001 2.05011204e-001 1.17388256e-001 3.18092592e-002
      1.09994538e-001 7.40193203e-002 2.73419678e-001 2.73419678e-001
      2.73419678e-001 2.28957847e-001 5.21228798e-002 2.64556948e-002
      4.18007970e-002 6.46368638e-002 5.77023998e-002 8.55459943e-002
      7.58355558e-002 1.02884121e-001 2.73419678e-001 8.29307958e-002
      1.69928037e-002 6.18149899e-003 5.67678362e-002 4.27605659e-002
      2.73419678e-001 2.73419678e-001 2.73419678e-001 2.32561871e-001
      1.15344092e-001 1.45679399e-001 3.91250923e-002 1.52102455e-001
      9.49187577e-002 1.91857874e-001 1.88901395e-001 2.32561871e-001
      2.32561871e-001 1.39434814e-001 2.06577703e-001 1.14973396e-001
      1.77162573e-001 1.59005553e-001 1.92215398e-001 2.08432943e-001
      2.32561871e-001 2.32561871e-001 3.12337596e-002 2.78730895e-002
      5.37292799e-003 7.78345019e-002 5.67717180e-002 1.94667831e-001
      1.89592913e-001 2.32561871e-001 2.32561871e-001 4.55798693e-002
      1.05029695e-001 6.76451772e-002 1.06036112e-001 1.21576391e-001
      2.06546396e-001 2.01568902e-001 2.32561871e-001 2.32713223e-001
      2.32713223e-001 2.32713223e-001 1.74868330e-001 1.51765198e-001
      1.56293124e-001 1.63372949e-001 1.50440529e-001 1.76807597e-001
      2.32713223e-001 2.32713223e-001 2.32713223e-001 1.54575497e-001
      1.14423625e-001 9.66095924e-002 6.45060614e-002 7.73542747e-002
      1.98980719e-001 2.32713223e-001 1.37335464e-001 1.31363466e-001
      9.79973748e-002 7.16699064e-002 9.98223349e-002 1.69857040e-001
      1.46163285e-001 2.05761150e-001 2.32713223e-001 1.62218407e-001
      1.40739575e-001 6.40497282e-002 4.83227596e-002 1.03764243e-001
      1.25414252e-001 1.52197152e-001 2.32713223e-001 2.55030006e-001
      2.55030006e-001 2.38894507e-001 1.09210223e-001 1.33683354e-001
      7.58047923e-002 4.08595987e-002 6.96705505e-002 1.86968699e-001
      2.55030006e-001 2.55030006e-001 2.07552835e-001 3.96125540e-002
      1.29780188e-001 5.83105199e-002 1.04631327e-001 1.24218173e-001
      2.55030006e-001 2.54961133e-001 9.70252305e-002 9.64123458e-002
      7.94199556e-002 8.16267505e-002 9.80669111e-002 8.46100226e-002
      2.33729795e-001 2.55030006e-001 2.55030006e-001 8.75405073e-002
      5.87490834e-002 5.06668203e-002 7.22176954e-002 6.92222789e-002
      7.34102353e-002 2.33658001e-001 2.55030006e-001 2.41835102e-001
      1.99384198e-001 8.87847319e-002 1.41399112e-002 6.89784586e-002
      3.92799862e-002 1.15437791e-001 1.80161431e-001 2.41835102e-001
      2.41835102e-001 6.75064996e-002 1.45584077e-001 8.80184472e-002
      1.46648914e-001 5.56976944e-002 1.86602235e-001 2.41835102e-001
      2.41835102e-001 1.74888954e-001 9.99466032e-002 1.00924619e-001
      6.08699471e-002 1.59285992e-001 9.80259553e-002 8.87560472e-002
      1.15362607e-001 2.41835102e-001 2.41835102e-001 1.62323430e-001
      2.41835102e-001 1.30011424e-001 2.41835102e-001 1.24917939e-001
      9.45402309e-002 2.03626156e-001 2.41835102e-001 1.34981185e-001
      8.02398250e-002 1.55930862e-001 1.10036276e-001 1.19708069e-001
      4.75102887e-002 2.10763335e-001 2.18644962e-001 2.12222889e-001
      1.77987948e-001 1.32537141e-001 1.67341784e-001 1.04335062e-001
      1.66009322e-001 6.51003197e-002 2.13740364e-001 1.67410910e-001
      2.18644962e-001 2.18644962e-001 1.81014702e-001 2.18644962e-001
      1.45455182e-001 1.55244410e-001 4.50357944e-002 6.70093596e-002
      1.53327733e-001 2.18644962e-001 2.07826421e-001 2.18644962e-001
      2.18644962e-001 2.04873741e-001 2.13980943e-001 3.23380455e-002
      7.52245113e-002 1.29901826e-001 1.99549928e-001 2.34338626e-001
      1.45281956e-001 1.35533094e-001 8.75963718e-002 2.34338626e-001
      8.04811940e-002 1.69065431e-001 1.06480815e-001 2.34338626e-001
      2.34338626e-001 8.46579820e-002 6.60432130e-002 4.59767953e-002
      1.46585926e-001 1.02627113e-001 2.34338626e-001 2.34338626e-001
      2.34338626e-001 2.34338626e-001 2.23548561e-001 2.34338626e-001
      2.20909223e-001 2.34338626e-001 4.03537154e-002 6.21325970e-002
      1.07482389e-001 1.85797527e-001 2.10656032e-001 1.13330267e-001
      6.22709803e-002 7.96066597e-002 1.99660718e-001 7.49749690e-002
      1.01896010e-001 1.06181741e-001 1.56165853e-001 3.42424482e-001
      1.57828197e-001 5.20619676e-002 3.33578885e-002 7.20707253e-002
      9.02045444e-002 2.47444376e-001 2.88746655e-001 3.42424482e-001
      3.42424482e-001 1.24043010e-001 4.23119366e-002 2.75197383e-002
      5.84659129e-002 5.04746921e-002 3.23094688e-002 2.21571445e-001
      3.42424482e-001 1.75296068e-001 6.03842288e-002 4.58590910e-002
      5.10679781e-002 1.01441756e-001 1.47968113e-001 1.34392202e-001
      1.45514697e-001 1.94148570e-001 1.79062814e-001 4.04226333e-002
      4.60937619e-002 4.85794991e-002 1.18084364e-001 1.08305387e-001
      6.83849975e-002 1.23526074e-001 1.86717764e-001 2.87924021e-001
      7.32246265e-002 8.12592879e-002 5.60147315e-002 1.00284092e-001
      2.40942352e-002 4.49682474e-002 1.86936840e-001 2.87924021e-001
      2.87924021e-001 1.57163650e-001 2.87924021e-001 1.70696333e-001
      1.98508292e-001 5.22694141e-002 1.13115914e-001 2.02035204e-001
      2.87924021e-001 1.53144583e-001 3.24207544e-002 5.44632599e-002
      4.61412445e-002 1.17540263e-001 3.92277315e-002 4.55241352e-002
      7.95501843e-002 1.33809730e-001 2.87924021e-001 7.13998973e-002
      1.88355014e-001 1.21159859e-001 1.73514694e-001 6.06170036e-002
      1.42260760e-001 1.54886648e-001 2.87924021e-001 2.74360687e-001
      1.35382265e-001 1.51090965e-001 6.28701597e-002 9.48790014e-002
      4.91957739e-002 9.10353810e-002 1.21431269e-001 2.74360687e-001
      2.74360687e-001 1.40524969e-001 4.47767302e-002 1.94531400e-002
      5.31398579e-002 8.68579075e-002 1.77687258e-001 1.19973607e-001
      2.61225462e-001 2.74360687e-001 9.84267741e-002 1.03087977e-001
      7.55380839e-002 1.18612595e-001 7.31636137e-002 1.29730120e-001
      1.13222815e-001 2.74360687e-001 2.74360687e-001 1.39096335e-001
      6.33879974e-002 6.02870286e-002 1.15212291e-001 2.02433407e-001
      2.74360687e-001 1.11595906e-001 2.74360687e-001 1.82949960e-001
      9.89171267e-002 5.74735999e-002 4.24430445e-002 5.28589599e-002
      8.70907530e-002 1.76833540e-001 9.83320102e-002 1.43997192e-001
      1.71259463e-001 7.08052814e-002 3.99596691e-002 3.62798721e-002
      2.44639236e-002 2.53505558e-002 4.24180403e-002 6.72696680e-002
      1.52545437e-001 3.31024349e-001 9.02393609e-002 6.41286597e-002
      7.05676079e-002 1.02831781e-001 2.03176141e-001 3.31024349e-001
      1.77558929e-001 3.31024349e-001 3.31024349e-001 1.55790016e-001
      5.05106896e-002 7.96442479e-002 1.45307571e-001 4.58930433e-002
      2.40285814e-001 2.13451445e-001 3.31024349e-001 2.46068105e-001
      1.07439049e-001 5.74764051e-002 2.74936426e-002 1.93071589e-002
      2.80923285e-002 4.44781967e-002 7.24133402e-002 2.46068105e-001
      2.41192445e-001 1.17674537e-001 5.95801212e-002 2.36766413e-002
      3.31246257e-002 4.03372645e-002 7.09361285e-002 1.25611618e-001
      2.46068105e-001 2.46068105e-001 2.46068105e-001 2.00148448e-001
      1.52829900e-001 1.85985461e-001 6.27752319e-002 2.31674835e-001
      2.46068105e-001 2.46068105e-001 2.46068105e-001 2.37075627e-001
      1.87521651e-001 1.06091246e-001 8.71191248e-002 1.31260827e-001
      9.49898437e-002 1.91976458e-001 2.46068105e-001 2.19497785e-001
      1.96771428e-001 1.06045559e-001 2.33966559e-002 9.19921771e-002
      7.78953210e-002 1.01287685e-001 2.10099354e-001 2.36230329e-001
      2.36230329e-001 2.29790002e-001 2.06735641e-001 7.74445832e-002
      1.60880119e-001 7.30952695e-002 6.71056882e-002 1.03843272e-001
      2.36230329e-001 2.36230329e-001 2.21384302e-001 1.45711482e-001
      5.80232516e-002 6.08407147e-002 1.41692936e-001 9.41352621e-002
      2.36230329e-001 2.36230329e-001 2.36230329e-001 2.36230329e-001
      1.86090708e-001 7.62130693e-002 1.15447156e-001 5.48707470e-002
      5.67023717e-002 1.16100863e-001 2.36230329e-001 2.22616822e-001
      7.69369155e-002 2.25450732e-002 2.59308871e-002 1.00828439e-001
      2.34158278e-001 1.81490958e-001 1.63160309e-001 2.41364405e-001
      2.84822911e-001 2.51160830e-001 1.05170913e-001 4.92069572e-002
      7.91249424e-002 1.44734278e-001 1.27871618e-001 1.34829253e-001
      2.84822911e-001 6.56160042e-002 3.92533764e-002 3.41863260e-002
      4.94677909e-002 1.84851825e-001 2.84822911e-001 2.16846794e-001
      2.78014112e-002 2.87363753e-002 2.43426532e-001 1.04382142e-001
      5.03322706e-002 3.54503207e-002 1.97375864e-001 2.84822911e-001
      2.84822911e-001 5.64731434e-002 7.36001730e-002 2.56678313e-001
      2.56678313e-001 2.56678313e-001 2.37558827e-001 9.58243310e-002
      3.71989682e-002 5.39016053e-002 4.92968597e-002 2.56678313e-001
      2.56678313e-001 1.63036615e-001 2.56678313e-001 2.56678313e-001
      2.13756680e-001 1.38555914e-001 8.88388306e-002 5.27952649e-002
      8.76018256e-002 2.02106714e-001 9.60263312e-002 1.04674570e-001
      4.88436967e-002 8.52334350e-002 1.74639925e-001 2.27836996e-001
      1.08885929e-001 6.68749809e-002 5.58696166e-002 5.48440889e-002
      1.33660913e-001 9.15787444e-002 5.15220538e-002 1.73661664e-001
      2.56678313e-001 2.11787522e-001 9.35094953e-002 2.52999932e-001
      6.89639449e-002 1.02489598e-001 1.80543467e-001 1.77917525e-001
      2.32712150e-001 2.02939302e-001 1.11117750e-001 1.00694120e-001
      2.52999932e-001 8.58840719e-002 3.85575276e-003 4.97506279e-003
      7.44462609e-002 1.80152997e-001 2.52999932e-001 2.52999932e-001
      2.52999932e-001 3.13302614e-002 1.15547860e-002 4.47352827e-002
      4.33628485e-002 3.92525941e-002 2.09213063e-001 2.52999932e-001
      2.52999932e-001 1.44446567e-001 1.96841076e-001 2.21817084e-002
      7.99291395e-003 2.12673983e-003 4.29819040e-002 1.24319285e-001
      2.25520417e-001 2.52999932e-001 2.52999932e-001 2.92789578e-001
      7.37401694e-002 1.55948550e-002 5.48757380e-003 2.82819793e-002
      6.49247691e-002 2.30271444e-001 2.81522751e-001 2.92789578e-001
      2.92789578e-001 1.60864085e-001 1.62715718e-001 1.13155715e-001
      5.29591888e-002 8.29607919e-002 2.43258208e-001 2.92789578e-001
      2.92789578e-001 1.68274909e-001 3.55135202e-002 7.79024092e-003
      3.62865929e-003 1.46702891e-002 2.47375201e-002 6.30821064e-002
      1.07858233e-001 2.80668348e-001 2.49085173e-001 9.75117907e-002
      5.55321649e-002 1.27064213e-002 1.00539038e-002 2.42669359e-002
      4.28856686e-002 5.91752231e-002 2.92789578e-001 3.00309986e-001
      1.56794012e-001 1.12004057e-001 1.03138126e-001 3.91814299e-002
      6.50148317e-002 1.80602044e-001 2.40047887e-001 3.00309986e-001
      3.00309986e-001 1.24445103e-001 3.52729596e-002 2.87271552e-002
      6.63104281e-003 7.93095008e-002 1.85935616e-001 3.00309986e-001
      3.00309986e-001 2.31898144e-001 9.35809463e-002 6.16352893e-002
      5.73224714e-003 1.50232315e-002 3.77765559e-002 2.48844139e-002
      6.22834712e-002 2.77700812e-001 2.86864817e-001 9.06903446e-002
      2.59454511e-002 1.11754623e-003 1.03345625e-002 2.60924306e-002
      2.10338365e-002 1.07685231e-001 3.00309986e-001 2.65559047e-001
      5.22381179e-002 5.99614717e-002 3.04211657e-002 5.61731355e-003
      6.36352524e-002 1.26420245e-001 3.00879538e-001 3.00879538e-001
      2.48423561e-001 8.50004181e-002 7.31131807e-002 4.61049117e-002
      4.38350253e-002 1.89004570e-001 1.90024704e-001 3.00879538e-001
      3.00879538e-001 1.94467932e-001 4.92311120e-002 9.40186158e-003
      7.32658315e-004 4.05884720e-003 2.48876829e-002 3.12107746e-002
      1.36345670e-001 2.85575271e-001 2.04700470e-001 7.86283240e-002
      3.17140594e-002 5.54293767e-003 5.89012122e-003 8.77921507e-002
      8.29260573e-002 3.00879538e-001 3.00879538e-001 2.09737688e-001
      1.49208456e-001 1.19969174e-001 9.68393460e-002 1.37895495e-001
      1.59396514e-001 1.34411022e-001 1.82703584e-001 2.54233569e-001
      2.54233569e-001 2.54233569e-001 2.54233569e-001 1.82761446e-001
      2.54233569e-001 1.72996119e-001 9.09942314e-002 1.92933023e-001
      2.54233569e-001 1.67665824e-001 8.77180323e-002 4.90317307e-002
      2.12735124e-002 1.22050270e-002 8.51686075e-002 6.08700402e-002
      1.25422314e-001 1.86508805e-001 2.54233569e-001 2.30589688e-001
      1.00965381e-001 5.66962436e-002 5.32808788e-002 8.31491724e-002
      4.96674106e-002 8.10548067e-002 2.54233569e-001 2.32774183e-001
      2.17236310e-001 2.30160311e-001 1.27339229e-001 1.88979834e-001
      7.93609098e-002 1.05331019e-001 1.86481744e-001 2.32774183e-001
      2.32774183e-001 2.07625061e-001 2.32774183e-001 1.91498548e-001
      1.99329883e-001 4.14832756e-002 1.71424627e-001 1.18125618e-001
      2.28997543e-001 2.32774183e-001 1.60406515e-001 6.78159595e-002
      4.15490642e-002 5.71115725e-002 4.08915803e-002 1.16816014e-001
      1.13769531e-001 1.80980071e-001 2.32774183e-001 1.45874739e-001
      9.20997113e-002 5.14281765e-002 6.95913360e-002 4.74332906e-002
      2.32774183e-001 8.42331722e-002 2.32774183e-001 2.73760527e-001
      2.24819228e-001 2.21128479e-001 1.84852093e-001 1.48029327e-001
      1.99005362e-002 1.08875759e-001 9.00157392e-002 1.56330854e-001
      2.48242959e-001 1.72183529e-001 1.07917435e-001 9.58410800e-002
      9.43604112e-002 7.72026256e-002 1.13385722e-001 1.50519043e-001
      1.79101408e-001 2.73760527e-001 1.33475572e-001 9.83339921e-002
      3.90454195e-002 3.06373276e-002 2.77506970e-002 1.87795818e-001
      1.11861706e-001 2.73760527e-001 2.73760527e-001 1.43673673e-001
      1.08762473e-001 8.98239389e-002 8.25438201e-002 3.95226255e-002
      1.59083098e-001 2.73760527e-001 2.73760527e-001 9.57439318e-002
      7.82513767e-002 8.36165175e-002 5.52513264e-002 7.50047192e-002
      1.22772746e-001 8.80694687e-002 9.94893089e-002 1.22543022e-001
      1.22073159e-001 6.83514029e-002 6.02952838e-002 4.59170230e-002
      1.67320043e-001 8.74849185e-002 4.54162844e-002 5.22090085e-002
      1.19553395e-001 3.06892246e-001 1.36421993e-001 2.04058096e-001
      1.18722290e-001 1.88456610e-001 7.20654950e-002 1.66148588e-001
      2.88006455e-001 3.06892246e-001 3.06892246e-001 3.06892246e-001
      1.38302088e-001 6.05062768e-002 3.06892246e-001 7.39049688e-002
      8.27346519e-002 1.11264139e-001 3.06892246e-001 1.50319606e-001
      5.64326383e-002 2.36766487e-002 2.94893105e-002 1.34341136e-001
      4.24364507e-002 2.25314293e-002 2.67109238e-002 1.39789283e-001
      2.55268723e-001 6.75521120e-002 7.32332170e-002 6.11900054e-002
      9.73035395e-002 5.14492579e-002 5.28970622e-002 2.83460692e-002
      2.33105838e-001 3.54935735e-001 3.54935735e-001 1.89106967e-002
      2.58661583e-002 2.14244023e-001 4.78550307e-002 2.55892519e-002
      4.84788045e-002 3.54935735e-001 3.54935735e-001 2.41475537e-001
      1.67879105e-001 5.07177003e-002 8.16829577e-002 2.42851805e-002
      2.17832476e-002 2.86912564e-002 3.54935735e-001 2.23900691e-001
      7.70483539e-002 1.40141472e-001 5.60338497e-002 7.28072599e-002
      5.72769903e-002 5.59996478e-002 2.42010169e-002 2.33310193e-001
      2.91793317e-001 9.38853770e-002 1.33872241e-001 7.22267404e-002
      9.01890174e-002 9.51805860e-002 2.13897541e-001 6.18546493e-002
      2.91793317e-001 2.91793317e-001 1.56553969e-001 2.91793317e-001
      3.41223776e-002 2.11152770e-002 1.60730816e-002 1.36745758e-002
      1.91233642e-002 2.91793317e-001 2.91793317e-001 1.70400888e-001
      2.89943725e-001 6.07681572e-002 2.54236422e-002 2.62158066e-002
      7.06955343e-002 8.19380283e-002 2.91793317e-001 3.09186459e-001
      3.74933071e-002 3.24027687e-002 5.59492819e-002 6.56813458e-002
      6.18955791e-002 2.25640833e-001 9.32692960e-002 3.09186459e-001
      3.09186459e-001 7.60992467e-002 2.95057092e-002 6.78782910e-002
      1.78265154e-001 3.71812955e-002 1.51928291e-001 1.17665879e-001
      3.09186459e-001 3.09186459e-001 5.50469421e-002 6.20463379e-002
      5.31620309e-002 2.43640672e-002 2.49642022e-002 1.33573845e-001
      1.21507198e-001 3.09186459e-001 3.09186459e-001 6.41553998e-002
      4.93292846e-002 5.71064875e-002 9.27159935e-002 2.05665007e-002
      8.94713923e-002 8.41142982e-002 3.09186459e-001 2.59877831e-001
      1.68834746e-001 1.27094477e-001 1.02359347e-001 2.43812263e-001
      4.65341359e-002 1.77597344e-001 2.00969368e-001 2.59877831e-001
      1.59681395e-001 1.57537520e-001 1.82381526e-001 6.54155314e-002
      1.19665891e-001 7.00289831e-002 9.64917317e-002 1.33039579e-001
      2.26802617e-001 2.59877831e-001 1.61568299e-001 1.21803060e-001
      5.95946945e-002 1.67665243e-001 3.83208022e-002 7.71609843e-002
      1.41202629e-001 2.59877831e-001 2.59877831e-001 1.69761300e-001
      1.99395820e-001 7.16006011e-002 1.22662887e-001 6.11581840e-002
      7.89363533e-002 1.38893336e-001 2.59877831e-001 2.44404808e-001
      1.41248628e-001 2.53708512e-001 8.77086073e-002 6.96020201e-002
      1.17234305e-001 9.99008864e-002 1.22495160e-001 2.68790275e-001
      1.95375025e-001 1.33900896e-001 1.39607638e-001 5.32087423e-002
      4.79226112e-002 7.55259842e-002 7.31711909e-002 8.70653018e-002
      1.96394205e-001 2.68790275e-001 1.88416854e-001 2.68790275e-001
      1.63394690e-001 1.00585237e-001 8.81274194e-002 1.42046526e-001
      1.76168114e-001 2.68790275e-001 2.68790275e-001 1.88114017e-001
      1.28264710e-001 7.88495094e-002 3.78019325e-002 4.97508347e-002
      1.03491046e-001 1.63131267e-001 2.68790275e-001 1.29293144e-001
      5.60563430e-003 2.47779209e-002 4.44445759e-002 9.34945270e-002
      1.32305428e-001 8.14792216e-002 1.98036581e-002 3.66322517e-001
      1.36242628e-001 4.09079203e-003 5.46364952e-003 2.33496018e-002
      1.18623309e-001 2.36511499e-001 1.52176470e-001 7.51272216e-002
      3.66322517e-001 3.66322517e-001 1.93495527e-002 7.96951819e-003
      1.51243089e-002 2.52534803e-002 2.48677116e-002 1.02242148e-002
      2.69335322e-002 3.66322517e-001 3.66322517e-001 5.24434671e-002
      4.25679004e-003 1.03619238e-002 2.76725367e-002 5.81104159e-002
      3.73298191e-002 9.71762538e-002 3.66322517e-001 1.20292559e-001
      4.00498463e-003 6.11004280e-003 6.83369953e-003 4.82872464e-002
      1.23153478e-001 1.49748355e-001 2.02103227e-001 3.23200196e-001
      1.00177966e-001 3.72866960e-003 2.59632827e-003 5.36323804e-003
      9.72169172e-003 6.19605407e-002 1.56205133e-001 2.89014578e-001
      3.23200196e-001 3.23200196e-001 4.76713143e-002 1.19211879e-002
      1.47090759e-003 1.03934761e-002 3.04047428e-002 4.82807569e-002
      2.48430908e-001 3.23200196e-001 3.23200196e-001 6.20809197e-002
      8.32919776e-003 3.84411615e-005 1.59002673e-002 1.54898660e-002
      4.55571190e-002 2.80612946e-001 3.23200196e-001 1.10010050e-001
      6.21723477e-003 1.29582197e-003 8.90645548e-004 1.83599442e-003
      6.79941997e-002 1.60238385e-001 2.69125015e-001 3.20600152e-001
      2.71052152e-001 2.61621363e-002 5.89968823e-003 0. 3.76309711e-003
      3.88730094e-002 8.40817541e-002 2.17194557e-001 3.20600152e-001
      2.86164463e-001 4.93685640e-002 3.13567813e-003 0. 9.75681376e-003
      2.27551665e-002 5.62681183e-002 2.45072320e-001 3.20600152e-001
      3.20600152e-001 3.10185086e-002 5.80249960e-003 0. 2.17136927e-002
      1.87766757e-002 4.42918316e-002 2.93401539e-001 3.20600152e-001
      3.35279077e-001 4.88863289e-002 1.21254157e-002 4.52019158e-004
      3.08684772e-003 6.30683964e-003 2.77768876e-002 1.25355348e-001
      3.35279077e-001 3.35279077e-001 1.01169266e-001 4.12936844e-002
      5.24943415e-003 6.21270807e-003 1.12414639e-002 1.13566127e-002
      5.45636155e-002 3.35279077e-001 3.35279077e-001 4.02677394e-002
      8.66086036e-003 1.11215690e-004 1.42193977e-002 3.13086179e-003
      1.71522740e-002 2.12090671e-001 3.35279077e-001 3.35279077e-001
      7.94589147e-002 2.17780080e-002 1.96740236e-002 5.27355680e-003
      3.55789717e-003 1.39866294e-002 9.19033214e-002 3.35279077e-001
      3.25339675e-001 1.26718715e-001 4.72052284e-002 1.91894863e-002
      1.84831005e-002 4.00304496e-002 8.26236606e-003 1.53344627e-002
      3.25339675e-001 3.25339675e-001 1.35573074e-001 2.66165249e-002
      1.80500392e-002 2.73256321e-002 7.05452412e-002 1.93219446e-002
      4.02179994e-002 3.25339675e-001 3.25339675e-001 1.05439737e-001
      3.73354927e-002 8.27981979e-002 1.92299727e-002 7.76158795e-002
      1.73138529e-002 4.02948521e-002 3.25339675e-001 3.25339675e-001
      1.13975011e-001 3.40925083e-002 7.80190229e-002 5.19214012e-002
      2.15939641e-001 4.90861237e-002 4.78815436e-002 3.25339675e-001
      2.84112573e-001 6.07645586e-002 8.27671774e-003 1.88160222e-002
      3.77927162e-002 2.28168797e-002 1.49227949e-002 4.46022600e-002
      3.08272481e-001 3.44568431e-001 1.00201219e-001 2.58238371e-002
      3.81395891e-002 3.54867689e-002 1.25522446e-002 1.10045522e-002
      5.58821745e-002 3.44568431e-001 3.44568431e-001 5.28464355e-002
      1.31652122e-002 8.11625347e-002 1.31614894e-001 4.62941118e-002
      2.14673020e-002 4.46154810e-002 3.44568431e-001 3.44568431e-001
      6.34970367e-002 5.91930524e-002 1.56232134e-001 1.33548617e-001
      6.51146332e-003 4.59754979e-003 4.50465605e-002 3.44568431e-001
      3.49023014e-001 1.05069906e-001 2.35536341e-002 2.18083709e-002
      8.39741714e-003 1.19117256e-002 5.75396139e-003 2.86331698e-002
      2.78780341e-001 3.56881946e-001 1.55918717e-001 3.11169345e-002
      1.15971873e-002 2.66505964e-002 2.36562900e-002 1.56743396e-002
      4.35574763e-002 3.13460410e-001 3.56881946e-001 4.15405221e-002
      3.80599163e-002 6.08517192e-002 1.27812577e-002 2.14902684e-003
      1.35482836e-003 1.35800010e-002 3.56881946e-001 3.56881946e-001
      4.99765314e-002 8.52106046e-003 8.90904106e-003 7.67883807e-002
      5.82555607e-002 5.45159588e-003 2.56033801e-002 3.56881946e-001
      3.11518848e-001 1.76634371e-001 3.71769443e-002 3.61772836e-003
      5.34476973e-002 3.68151404e-002 7.00963363e-002 9.66184959e-002
      3.11518848e-001 3.11518848e-001 1.80591002e-001 6.18811175e-002
      9.21940058e-003 3.53382342e-002 4.08326201e-002 1.90428630e-001
      1.15585074e-001 3.11518848e-001 3.11518848e-001 8.25943574e-002
      4.39721439e-003 9.20728024e-004 1.84573293e-001 1.28270462e-001
      9.68074612e-003 4.53467816e-002 3.11518848e-001 3.11518848e-001
      1.33840650e-001 1.47201121e-002 2.20016390e-003 5.77568524e-002
      3.67237963e-002 6.01260178e-003 6.11942895e-002 3.02232772e-001
      2.99884945e-001 1.26433581e-001 4.23055477e-002 6.90287119e-003
      9.32890270e-003 1.76763721e-002 1.03992715e-001 1.15562670e-001
      2.99884945e-001 2.99884945e-001 1.56794146e-001 1.00593127e-001
      1.57551199e-001 1.94764867e-001 4.04887870e-002 2.18189731e-001
      2.99884945e-001 2.99884945e-001 2.99884945e-001 9.85821038e-002
      1.78057048e-002 2.63598585e-003 3.12780705e-003 2.31307233e-003
      1.16816733e-003 3.32525000e-002 2.29690507e-001 2.99884945e-001
      8.45450610e-002 3.47805694e-002 5.69002479e-002 7.77796358e-002
      4.45473678e-002 8.36500153e-002 1.09897986e-001 2.75251150e-001
      2.46863961e-001 8.36628899e-002 1.23547308e-001 1.28667220e-001
      2.46863961e-001 1.03255890e-001 2.33487338e-001 2.46863961e-001
      2.46863961e-001 2.46863961e-001 2.34530956e-001 9.18737873e-002
      4.94375601e-002 2.32205674e-001 1.22434437e-001 1.57604232e-001
      2.05570832e-001 2.46863961e-001 1.03341281e-001 4.81122471e-002
      2.57720444e-002 6.23097010e-002 1.83535442e-001 1.51495799e-001
      1.66875362e-001 1.73536658e-001 8.73637721e-002 1.29861757e-001
      4.50268500e-002 2.46795081e-002 4.15801816e-002 2.09880054e-001
      2.08737165e-001 1.64965287e-001 1.85275182e-001 1.25796393e-001
      3.30250233e-001 3.30250233e-001 2.87700370e-002 1.38164917e-002
      8.91966373e-002 3.97116579e-002 2.43765526e-002 9.05913487e-002
      3.30250233e-001 3.30250233e-001 1.90582290e-001 8.50124657e-002
      1.39927873e-002 2.03216430e-002 5.00694755e-003 7.93229323e-003
      6.76831380e-002 3.30250233e-001 3.27170104e-001 6.07411601e-002
      1.95961203e-002 1.13295522e-002 4.77928631e-002 5.84257208e-002
      4.02413830e-002 7.59495124e-002 2.06218675e-001 3.30250233e-001
      4.91806045e-002 7.63426675e-003 1.20128528e-003 1.44301448e-004
      4.60934571e-005 1.94391969e-003 3.46114226e-002 3.21863323e-001
      3.10698986e-001 1.23445280e-001 2.30393812e-001 1.56265367e-002
      5.58972405e-003 3.45249427e-003 6.45422563e-003 6.30901158e-002
      3.10698986e-001 3.10698986e-001 1.95937634e-001 2.52754182e-001
      1.06203884e-001 1.08409375e-002 2.17571501e-002 4.67231721e-002
      7.87467584e-002 3.10698986e-001 3.10698986e-001 4.66001071e-002
      7.48007605e-003 1.41456642e-003 1.03531733e-004 4.64287063e-004
      8.18738190e-004 3.26083265e-002 3.10698986e-001 3.10698986e-001
      1.47769675e-001 5.11310920e-002 2.92508770e-002 6.66610955e-004
      3.94633878e-003 9.34586860e-003 2.76001040e-002 3.10698986e-001
      3.21078271e-001 1.42130867e-001 1.16907924e-001 1.03053220e-001
      1.22257974e-002 5.49976677e-002 1.31215394e-001 1.11976199e-001
      3.21078271e-001 3.21078271e-001 1.22899123e-001 5.54907732e-002
      6.36854321e-002 4.40806150e-002 3.06504779e-002 8.52655470e-002
      1.09093815e-001 3.21078271e-001 3.21078271e-001 2.78479844e-001
      6.72378540e-002 2.84545366e-002 1.88260106e-003 1.23788016e-002
      2.48476807e-002 2.32593119e-002 1.60521194e-001 3.21078271e-001
      3.21078271e-001 3.73143628e-002 1.14789652e-002 4.02727583e-003
      7.90823530e-003 2.21351013e-002 3.53589095e-002 2.00334162e-001
      3.11021239e-001 1.29227072e-001 7.30898678e-002 6.59479052e-002
      7.77038112e-002 2.43279953e-002 1.91365480e-002 1.19369276e-001
      3.11021239e-001 3.11021239e-001 1.74887374e-001 1.18695907e-001
      1.29189163e-001 7.51427338e-002 5.33579066e-002 6.38315454e-002
      1.59558326e-001 3.11021239e-001 3.11021239e-001 1.71946272e-001
      1.72427539e-002 2.08998453e-002 1.17691876e-002 5.72503358e-003
      9.19745117e-003 4.68806289e-002 3.11021239e-001 3.11021239e-001
      7.12206885e-002 4.98234630e-002 9.19805914e-002 7.21051246e-002
      5.51546812e-002 4.45405133e-002 1.30376577e-001 3.11021239e-001
      2.95716494e-001 1.73635095e-001 8.66067633e-002 1.05176255e-001
      6.65249750e-002 3.91192473e-002 1.13930203e-001 1.71151385e-001
      2.95716494e-001 2.95716494e-001 2.78967708e-001 4.95630093e-002
      5.66205792e-002 3.46273184e-002 1.04006128e-002 5.65130040e-002
      1.15142621e-001 2.95716494e-001 2.95716494e-001 7.50050619e-002
      3.28266062e-002 6.67207465e-002 7.84847215e-002 7.76453391e-002
      6.19203821e-002 1.36687562e-001 2.95716494e-001 2.95716494e-001
      2.05942065e-001 1.43031720e-002 2.08631437e-002 3.30311432e-002
      2.82565765e-002 3.13820839e-002 8.65244269e-002 2.95716494e-001
      3.40206236e-001 1.80370007e-002 0. 0. 0. 0. 5.42514492e-003
      6.61194399e-002 3.40206236e-001 3.40206236e-001 7.07875714e-002
      4.43896232e-003 3.56596211e-005 0. 3.21774883e-003 6.08644588e-003
      6.79077879e-002 3.40206236e-001 2.15503246e-001 5.21060219e-003 0.
      0. 1.33220013e-002 0. 1.53436959e-002 2.78102785e-001
      3.40206236e-001 2.91420877e-001 3.06139346e-002 2.95930833e-004
      2.37730819e-006 1.72497369e-002 8.57105106e-003 1.69054735e-002
      2.77489066e-001 3.40206236e-001 3.08466762e-001 1.06459089e-001
      2.32969858e-002 1.40577147e-004 9.10897832e-003 1.39191505e-002
      1.70141179e-002 1.54399022e-001 3.08466762e-001 3.08466762e-001
      1.29029423e-001 2.28457451e-002 6.38987040e-005 2.95774732e-002
      1.77150518e-002 2.39460710e-002 1.74893558e-001 3.08466762e-001
      2.99725741e-001 5.13127781e-002 3.68914381e-003 9.37180994e-006
      2.58682072e-002 2.88273599e-002 3.42417508e-002 3.08466762e-001
      3.08466762e-001 2.20143035e-001 8.51337090e-002 7.27382815e-003
      4.25991357e-006 2.79636942e-002 1.67441182e-002 1.62054971e-002
      3.04647982e-001 3.08466762e-001 3.28355044e-001 1.14468560e-001
      1.79706477e-002 0. 2.90297475e-002 2.87664775e-002 4.54394631e-002
      1.70195818e-001 3.28355044e-001 2.82643795e-001 6.11240901e-002
      2.48706564e-002 4.72855568e-003 5.52476346e-002 3.20137441e-002
      5.69400676e-002 2.51468807e-001 3.28355044e-001 3.28355044e-001
      1.22097209e-001 8.59475974e-003 0. 2.54764669e-002 9.73666273e-003
      8.93316325e-003 1.12332188e-001 3.28355044e-001 3.28355044e-001
      6.32691458e-002 1.36247957e-002 6.07957132e-003 3.68349217e-002
      1.89234801e-002 1.38499094e-002 8.05970952e-002 3.28355044e-001
      3.09379637e-001 5.62727153e-002 1.71048120e-002 1.48946540e-002
      3.91289406e-002 7.07824482e-003 2.86069512e-002 2.09205076e-001
      3.23150069e-001 3.23150069e-001 9.67636332e-002 3.21687758e-002
      3.21389176e-002 1.80067066e-002 0. 5.47158830e-002 1.50594339e-001
      3.23150069e-001 3.14857453e-001 6.97768405e-002 1.25634903e-002
      1.87350847e-002 3.56317349e-002 6.94523845e-003 1.37192011e-002
      1.58924371e-001 3.23150069e-001 2.95200348e-001 9.25429463e-002
      2.13716533e-002 1.88706219e-002 4.25163656e-002 0. 5.95148504e-002
      2.41877317e-001 3.23150069e-001 3.36866945e-001 8.57612565e-002
      2.89128292e-002 5.76424859e-002 9.04267561e-003 4.37901467e-002
      4.95456047e-002 9.32878330e-002 3.36866945e-001 3.36866945e-001
      6.47504777e-002 1.98665038e-002 4.96638604e-002 2.64528934e-002
      1.35076538e-001 3.93011905e-002 8.97479504e-002 3.36866945e-001
      3.11217308e-001 7.10236505e-002 1.30471531e-002 3.62550048e-003
      2.63438243e-002 5.87091490e-004 4.38326709e-002 1.43711686e-001
      3.36866945e-001 3.36866945e-001 5.52558377e-002 1.75742134e-002
      1.40118675e-004 2.98674554e-002 1.05256978e-002 2.76570600e-002
      1.07366569e-001 3.36866945e-001 3.49406928e-001 3.80157381e-002
      8.66504200e-003 5.66459857e-002 8.87976736e-002 3.37445959e-002
      1.78394858e-002 6.36236668e-002 3.49406928e-001 3.49406928e-001
      5.29897511e-002 4.10931632e-002 1.09292172e-001 9.47111025e-002
      5.95188700e-003 4.67884401e-003 7.67963976e-002 3.49406928e-001
      3.06518584e-001 4.50679027e-002 1.77943558e-002 1.66963189e-004
      1.72792859e-002 9.67031159e-003 1.20736901e-002 6.79244995e-002
      3.11593324e-001 3.49406928e-001 1.04537718e-001 6.99850405e-003
      1.12885528e-003 2.29972415e-002 8.86614062e-003 5.26777934e-003
      8.03959444e-002 3.46377105e-001 3.95765096e-001 3.53780203e-002
      3.47591266e-002 5.50695881e-002 9.97365545e-003 4.30853525e-003
      4.37081838e-003 3.33849788e-002 3.95765096e-001 3.95765096e-001
      4.78438698e-002 1.37821110e-002 1.30044967e-002 6.34183064e-002
      5.21522462e-002 1.44357691e-002 3.05405315e-002 3.95765096e-001
      2.88053691e-001 6.74897358e-002 1.11631667e-002 7.94393569e-003
      1.26769990e-002 5.58251794e-003 5.73462294e-003 5.11766449e-002
      2.82415003e-001 3.34948242e-001 4.13372107e-002 2.08213478e-002
      1.30142625e-002 1.26671605e-002 6.20315643e-003 2.08841730e-002
      5.97763769e-002 2.51438469e-001 3.37422520e-001 1.10382110e-001
      1.37765110e-002 1.29418131e-002 1.73036769e-001 1.24884330e-001
      2.73311641e-002 5.92952222e-002 3.37422520e-001 3.37422520e-001
      1.62421882e-001 2.18824092e-002 1.12734195e-002 5.27106561e-002
      4.12954502e-002 2.05271989e-002 5.75980954e-002 3.37422520e-001
      3.37422520e-001 6.40022382e-002 4.00437973e-002 3.16942781e-002
      2.56914776e-002 1.65929981e-002 4.53832746e-002 8.38170499e-002
      2.93553323e-001 3.34863573e-001 1.04909398e-001 5.79957478e-002
      2.82530524e-002 3.58960256e-002 3.67593803e-002 3.67898345e-002
      5.50926179e-002 3.04268181e-001 3.08734417e-001 1.83156401e-001
      5.36877066e-002 8.95083789e-003 6.19898923e-003 6.28836686e-003
      1.18794115e-002 4.50570583e-002 3.08734417e-001 3.08734417e-001
      1.54368907e-001 8.34139958e-002 1.46210650e-002 3.33541594e-002
      6.11166582e-002 1.02652662e-001 2.11470053e-001 3.08734417e-001
      3.08734417e-001 2.00149134e-001 8.94261003e-002 1.53835965e-002
      2.64238399e-002 1.95484739e-002 2.16470435e-002 6.00183010e-002
      2.62364835e-001 3.08734417e-001 2.12574765e-001 8.91539454e-002
      1.67188421e-002 2.70022713e-002 1.12509541e-002 3.82606424e-002
      1.47705853e-001 3.08734417e-001 2.18746200e-001 9.03319791e-002
      4.93653007e-002 5.93701527e-002 1.77068621e-001 2.35447541e-001
      1.97388276e-001 2.51378477e-001 2.16511846e-001 2.51378477e-001
      1.01119712e-001 5.49738444e-002 7.55529180e-002 2.51378477e-001
      2.51378477e-001 2.51378477e-001 2.51378477e-001 2.51378477e-001
      2.24565655e-001 6.04870208e-002 3.95674668e-002 1.45326043e-002
      1.96883101e-002 2.39840616e-002 3.30840722e-002 1.25083864e-001
      2.48929352e-001 2.51378477e-001 9.12494734e-002 6.02515005e-002
      2.36690957e-002 1.73178557e-002 3.14966440e-002 6.76146969e-002
      1.65292010e-001 2.39096135e-001 3.71043921e-001 1.22213505e-001
      2.65652984e-002 1.56900976e-002 4.37324941e-002 8.86476263e-002
      8.25924650e-002 1.15275927e-001 3.70606363e-001 3.71043921e-001
      1.19681284e-001 1.28314774e-002 4.12238389e-003 4.32614423e-003
      6.23608846e-003 2.03199890e-002 5.11849970e-002 3.71043921e-001
      3.68442774e-001 9.00090933e-002 4.19148766e-002 1.93023495e-002
      1.71265770e-002 7.75505137e-003 4.99386378e-002 7.63630867e-002
      1.64222255e-001 3.71043921e-001 7.56132305e-002 2.56525725e-002
      2.00895090e-002 3.58236060e-002 1.99018084e-002 3.88025679e-002
      6.37795553e-002 2.21865490e-001 4.00964826e-001 7.85366744e-002
      7.29601970e-003 1.24267461e-002 7.23426603e-003 6.41305698e-003
      1.04595358e-002 4.12651040e-002 4.00964826e-001 4.00964826e-001
      1.59168541e-001 2.90673934e-002 1.55707449e-002 1.05913151e-002
      3.95528926e-003 6.86160987e-003 6.54757470e-002 4.00964826e-001
      3.35931361e-001 4.17342708e-002 1.63271390e-002 3.19582149e-002
      3.50001119e-002 3.01241968e-002 3.60827558e-002 5.20010889e-002
      2.22530529e-001 2.73147434e-001 3.25658396e-002 1.46665089e-002
      3.79039459e-002 4.64893840e-002 1.80609021e-002 2.65368521e-002
      9.24418941e-002 2.30523318e-001 3.46113205e-001 3.46113205e-001
      1.22856691e-001 1.94567181e-002 1.31657384e-002 2.14941218e-003
      7.44312303e-003 5.47637679e-002 3.28152835e-001 3.46113205e-001
      3.46113205e-001 1.77558601e-001 6.56081364e-002 1.93999726e-002
      6.35936484e-003 1.61625650e-002 3.25866975e-002 2.32315361e-001
      2.08825111e-001 6.88597932e-002 4.21035327e-002 3.89069021e-002
      5.75225912e-002 1.67295784e-002 2.19078120e-002 8.08297023e-002
      1.84424639e-001 2.71294475e-001 2.15080932e-001 1.54481500e-001
      1.14252478e-001 8.92792121e-002 8.67098495e-002 9.17044356e-002
      5.98412901e-002 1.37566030e-001 2.97907948e-001 2.97907948e-001
      8.24823603e-002 5.91557920e-002 1.89631172e-002 1.57978572e-002
      1.43986978e-002 2.54148524e-002 2.97907948e-001 2.97907948e-001
      2.23236516e-001 1.52402997e-001 1.88276172e-001 1.03209391e-001
      7.98427761e-002 5.19125871e-002 8.08309317e-002 2.97907948e-001
      2.97907948e-001 1.82072043e-001 8.08735266e-002 5.87556362e-002
      4.03397568e-002 6.02598563e-002 6.53739199e-002 4.94612381e-002
      2.20726222e-001 2.97907948e-001 1.60420701e-001 5.96175902e-002
      3.70161049e-002 1.06522758e-002 3.93442214e-002 2.69068964e-002
      6.01140112e-002 2.97907948e-001 2.46910110e-001 1.19716868e-001
      1.26921177e-001 1.56073347e-001 1.12275660e-001 1.27324671e-001
      1.05179168e-001 1.10274985e-001 3.08551282e-001 3.04077923e-001
      1.42083466e-001 4.43065986e-002 3.81856970e-002 4.94817793e-002
      5.81532530e-002 7.52131268e-002 1.37086451e-001 3.00063759e-001
      3.08551282e-001 1.59839153e-001 8.95807073e-002 4.83686998e-002
      2.03395523e-002 3.21055464e-002 4.34560552e-002 6.04890920e-002
      3.08551282e-001 3.08551282e-001 2.99854726e-001 7.80830681e-002
      2.83216145e-002 3.91315557e-002 1.79656465e-002 3.92903388e-002
      5.84606193e-002 2.55682439e-001</_>
    <_>
      1.99076131e-001 3.27046722e-001 3.27046722e-001 8.27606842e-002
      5.60038574e-002 1.83453411e-002 3.35999131e-002 6.64273724e-002
      1.51871130e-001 2.12480173e-001 2.99659044e-001 3.27046722e-001
      7.62153640e-002 1.23404205e-001 4.45120558e-002 1.07169941e-001
      1.59494862e-001 2.17216879e-001 1.84894755e-001 2.48346925e-001
      6.61657304e-002 5.29623739e-002 5.83408140e-002 3.83055992e-002
      1.39832675e-001 1.87231809e-001 2.29073822e-001 8.75551999e-002
      4.26811166e-002 3.20850089e-002 2.50805914e-002 5.01857884e-002
      3.37676667e-002 1.99623182e-001 2.54195124e-001 1.44757658e-001
      2.92312115e-001 2.02900067e-001 6.66750222e-002 1.84891820e-002
      6.39484674e-002 2.07165983e-002 6.45504445e-002 1.40398994e-001
      2.40515426e-001 2.92312115e-001 2.92312115e-001 1.32545292e-001
      3.37377563e-002 2.59515662e-002 1.85239632e-002 7.82668218e-003
      4.26111296e-002 1.48207143e-001 1.59959033e-001 7.93782175e-002
      4.37464342e-002 2.06802823e-002 3.20339352e-002 2.97618806e-002
      1.43054113e-001 2.66629815e-001 1.40919462e-001 2.92312115e-001
      2.92312115e-001 2.92312115e-001 2.06946373e-001 1.69738546e-001
      5.76574355e-002 5.11608161e-002 1.97851792e-001 2.10604280e-001
      2.80858964e-001 2.80858964e-001 1.51249334e-001 2.64306255e-002
      3.03330310e-002 2.12740991e-002 1.29407109e-003 7.17939204e-003
      9.61932540e-002 2.80858964e-001 2.80858964e-001 9.87595543e-002
      2.13611666e-002 2.21592300e-002 1.77546889e-002 3.53169511e-003
      6.50356943e-003 1.15393221e-001 2.80858964e-001 2.80858964e-001
      2.80858964e-001 2.13090062e-001 2.32953459e-001 8.31695348e-002
      3.19826454e-002 6.37378842e-002 1.37651473e-001 2.21488684e-001
      2.61289299e-001 2.53975898e-001 1.34064659e-001 1.56286880e-001
      1.50234386e-001 5.99011891e-002 1.85653344e-002 7.08552450e-002
      2.84247518e-001 2.84247518e-001 9.91544351e-002 2.84070987e-002
      1.59105137e-002 8.42876919e-003 1.76896399e-003 1.58890747e-002
      1.83639631e-001 2.84247518e-001 2.84247518e-001 1.56711146e-001
      3.04153804e-002 1.54246893e-002 7.58728420e-004 0. 8.59838258e-003
      2.71804214e-001 2.33087733e-001 2.15162426e-001 1.96373910e-001
      1.70922384e-001 1.01847865e-001 1.58767596e-001 3.40668857e-002
      7.75877759e-003 1.01521663e-001 2.84247518e-001 2.84247518e-001
      2.79274046e-001 2.05546543e-001 8.11533704e-002 4.45801392e-002
      5.89738321e-003 4.97383066e-003 1.52901024e-001 2.76728451e-001
      1.49175167e-001 6.97357506e-002 4.50821482e-002 4.74957936e-002
      3.71764489e-002 5.61874546e-002 5.10176970e-003 1.15122944e-001
      2.83699423e-001 2.83699423e-001 2.29114175e-001 7.74423108e-002
      6.54426888e-002 9.93064567e-002 1.51496753e-001 2.73568407e-002
      2.83699423e-001 1.60290733e-001 1.17050335e-001 1.07771985e-001
      7.08516166e-002 5.75354248e-002 3.72777283e-002 7.21171424e-002
      4.40028030e-003 7.36824870e-002 2.83699423e-001 2.83699423e-001
      2.83699423e-001 8.37264806e-002 1.81923673e-001 1.32843047e-001
      2.83699423e-001 4.48794514e-002 2.83699423e-001 2.73818225e-001
      1.75677121e-001 1.19693711e-001 3.18501815e-002 1.26029579e-002
      1.11909518e-002 1.74298249e-002 3.75167169e-002 2.73818225e-001
      2.73818225e-001 1.76556543e-001 1.12645313e-001 6.13482445e-002
      5.77230416e-002 4.24231514e-002 7.70691708e-002 7.44346231e-002
      2.73818225e-001 2.73818225e-001 1.66790843e-001 2.46854186e-001
      4.12125103e-002 9.03245881e-002 3.53979915e-002 1.43929541e-001
      8.95311534e-002 2.73818225e-001 2.73818225e-001 2.48225719e-001
      1.95635155e-001 4.40070741e-002 4.62005585e-002 2.96333004e-002
      1.53334051e-001 1.67538986e-001 2.73818225e-001 2.61327058e-001
      1.42745510e-001 8.39834511e-002 7.25409985e-002 8.82855207e-002
      5.35199158e-002 1.41134962e-001 1.12343155e-001 2.61327058e-001
      2.61327058e-001 1.83827922e-001 8.10987428e-002 6.25986606e-002
      5.15884645e-002 2.65475828e-002 2.08781287e-001 1.20344251e-001
      2.61327058e-001 2.61327058e-001 1.71811640e-001 7.06260726e-002
      5.52828796e-002 5.10541014e-002 3.15643214e-002 1.54797629e-001
      1.88606963e-001 2.61327058e-001 2.61327058e-001 1.98382139e-001
      6.09703362e-002 8.34233686e-002 7.94235617e-002 3.81321348e-002
      2.61327058e-001 2.06516430e-001 2.61327058e-001 2.66344875e-001
      1.43297061e-001 4.31666225e-002 7.53409937e-002 7.76481107e-002
      4.50303927e-002 1.98732957e-001 8.34363773e-002 2.66344875e-001
      2.66344875e-001 7.32719898e-002 2.39248481e-002 8.79682750e-002
      1.31906644e-001 9.32544321e-002 1.32941246e-001 1.26468614e-001
      2.66344875e-001 2.66344875e-001 2.14889407e-001 6.01535365e-002
      9.18537676e-002 1.79525778e-001 6.32740408e-002 2.40577117e-001
      1.38387918e-001 2.66344875e-001 2.62782931e-001 8.33248049e-002
      3.01869828e-002 1.10134304e-001 2.31042951e-001 9.70624089e-002
      8.63583609e-002 1.18059732e-001 2.66344875e-001 2.71959513e-001
      7.23751932e-002 1.29492544e-002 4.00108546e-002 8.41200501e-002
      1.19127765e-001 1.80278942e-001 1.12599067e-001 2.71959513e-001
      2.71959513e-001 1.21904314e-001 5.13470685e-003 4.11707759e-002
      1.12027161e-001 1.02788121e-001 2.71959513e-001 1.63662046e-001
      2.71959513e-001 2.06894442e-001 5.26852831e-002 3.03175114e-002
      8.26380253e-002 1.00644365e-001 1.42204806e-001 1.16706870e-001
      9.53377187e-002 2.71959513e-001 2.71959513e-001 1.80379719e-001
      5.22541739e-002 9.72915515e-002 1.59944206e-001 1.34109795e-001
      2.50431120e-001 9.07934383e-002 2.71959513e-001 2.56876200e-001
      4.05104868e-002 3.49707296e-003 3.71659063e-002 5.84861450e-002
      3.06358915e-002 2.22986177e-001 1.26374111e-001 2.56876200e-001
      2.56876200e-001 1.28463767e-002 5.66961197e-003 2.15722825e-002
      1.89550351e-002 2.72449851e-002 2.50440925e-001 2.02211425e-001
      2.56876200e-001 2.56876200e-001 1.02287091e-001 5.62590137e-002
      1.14251770e-001 1.15074553e-001 8.04320052e-002 1.99828148e-001
      1.01195239e-001 2.56876200e-001 2.56876200e-001 8.70395228e-002
      1.29855484e-001 1.25634521e-001 1.12419516e-001 1.44316047e-001
      2.56876200e-001 2.34203368e-001 2.56876200e-001 2.69138664e-001
      3.95558588e-002 6.17113989e-003 1.55984862e-002 2.30132341e-002
      3.95641960e-002 2.18434393e-001 2.52704471e-001 2.69138664e-001
      1.05591796e-001 2.38184538e-002 3.64160561e-003 1.42024532e-002
      2.82307025e-002 3.44164222e-002 8.28623995e-002 2.18947187e-001
      1.39955834e-001 2.69138664e-001 1.38820931e-001 7.18560517e-002
      7.29414448e-002 1.21953875e-001 1.73940420e-001 2.69138664e-001
      2.59594828e-001 2.69138664e-001 2.69138664e-001 9.26858112e-002
      1.51320463e-002 3.35727185e-002 7.74965063e-002 1.21936686e-001
      2.08567113e-001 2.64288127e-001 2.69138664e-001 3.71977091e-002
      7.10806577e-003 6.81349775e-003 9.75769665e-003 1.51185608e-002
      1.70481373e-002 6.47405088e-002 2.69547164e-001 2.29078189e-001
      5.52941337e-002 1.79181341e-002 1.10468306e-002 2.38889772e-002
      2.91084778e-002 3.28081772e-002 5.10384329e-002 1.87956169e-001
      1.81654915e-001 2.69547164e-001 1.63451180e-001 9.10734534e-002
      3.86059694e-002 5.59618846e-002 1.41971633e-001 2.68823236e-001
      2.69547164e-001 2.69547164e-001 2.69547164e-001 2.69547164e-001
      1.67194009e-001 2.05343664e-001 6.68225437e-002 1.93114460e-001
      1.98003635e-001 2.64365643e-001 2.69547164e-001 1.12133481e-001
      3.03181615e-002 1.00697549e-002 2.94773411e-002 5.62524162e-002
      4.04578894e-002 2.32837461e-002 6.65703043e-002 1.17204875e-001
      1.46717101e-001 4.30189036e-002 1.94437932e-002 3.04821450e-002
      8.02851319e-002 3.44397910e-002 1.74912401e-002 6.44820705e-002
      1.36500522e-001 3.14615816e-001 2.71684527e-001 8.89584497e-002
      2.56190270e-001 6.29215091e-002 2.54507899e-001 1.00126453e-001
      6.95578307e-002 3.14615816e-001 3.14615816e-001 2.55374402e-001
      4.56107520e-002 3.14615816e-001 4.08171378e-002 3.14615816e-001
      9.70835909e-002 1.50492266e-002 3.14615816e-001 9.22572166e-002
      2.37582419e-002 1.05533423e-002 5.99370804e-003 4.72078398e-002
      1.40208816e-002 3.29081118e-002 1.29122987e-001 1.32204518e-001
      1.26513451e-001 1.36992615e-002 1.01682926e-002 2.25728322e-002
      2.89428774e-002 3.60796079e-002 1.88390151e-001 3.07552367e-001
      2.06773117e-001 3.07552367e-001 1.78908616e-001 2.88044345e-002
      2.49825582e-001 2.32447591e-002 2.23648131e-001 6.74947053e-002
      1.37171848e-002 3.07552367e-001 3.07552367e-001 1.76898882e-001
      4.91850488e-002 3.07552367e-001 1.86445937e-002 2.79475063e-001
      1.29892603e-001 7.57027194e-002 3.07552367e-001 9.72511321e-002
      1.71865728e-002 9.17542260e-003 2.24656649e-002 7.54090399e-003
      3.45995873e-002 2.18032122e-001 2.80760616e-001 1.51195779e-001
      1.54563725e-001 3.32396962e-002 4.10656147e-002 1.02257421e-002
      8.40352476e-003 5.56513295e-002 2.80760616e-001 2.80760616e-001
      1.51817843e-001 2.80760616e-001 1.06487237e-001 5.63230924e-002
      2.26512104e-001 9.31789260e-003 1.44030809e-001 1.49319798e-001
      1.47630677e-001 2.80760616e-001 2.80760616e-001 1.12724707e-001
      1.83761835e-001 8.96987170e-002 3.64015736e-002 1.22726411e-001
      2.29404956e-001 2.36929104e-001 2.80760616e-001 9.26531106e-002
      1.16469055e-001 1.74191162e-001 2.29602352e-001 1.62140056e-001
      8.39542374e-002 2.43167683e-001 2.17034161e-001 1.86328992e-001
      1.12877507e-002 5.22929803e-002 1.79586828e-001 1.49327531e-001
      8.33710209e-002 8.24554786e-002 2.57851005e-001 2.57851005e-001
      1.56339601e-001 1.32082939e-001 8.88763294e-002 1.29830226e-001
      1.18075736e-001 6.40116408e-002 9.08218771e-002 2.18749836e-001
      2.57851005e-001 2.57851005e-001 1.33398950e-001 1.02976486e-001
      1.98752433e-001 1.24460571e-001 4.49841805e-002 5.97768426e-002
      1.34413764e-001 2.57851005e-001 2.57851005e-001 1.56396572e-002
      5.69647998e-002 8.89319852e-002 4.02479395e-002 8.19365606e-002
      2.47272104e-002 6.71979263e-002 1.41390711e-001 6.94422573e-002
      1.81123391e-001 2.70030588e-001 2.70030588e-001 2.48320073e-001
      2.70030588e-001 2.82091442e-002 3.06914132e-002 1.72491983e-001
      1.73581973e-001 6.04779124e-002 6.93695173e-002 8.43247175e-002
      3.72881256e-002 1.19968481e-001 1.68483220e-002 3.50823998e-002
      2.22802699e-001 2.37319082e-001 1.90113425e-001 2.70030588e-001
      2.70030588e-001 1.78476810e-001 2.70030588e-001 2.65173968e-002
      2.58249547e-002 2.70030588e-001 2.70030588e-001 1.79079011e-001
      2.55999118e-001 2.55999118e-001 2.35658377e-001 2.35915154e-001
      3.66862863e-002 2.22400948e-002 8.43787491e-002 1.27667800e-001
      5.15040904e-002 1.12521812e-001 1.33275405e-001 1.30959690e-001
      1.42173469e-001 8.04597810e-002 6.19177707e-002 3.11320871e-002
      3.59164923e-002 2.30072871e-001 2.44328722e-001 2.45894566e-001
      1.72453970e-001 1.57013088e-001 3.50440815e-002 2.41884366e-002
      2.55999118e-001 2.55999118e-001 2.22133189e-001 6.85246214e-002
      5.19305766e-002 9.67062861e-002 8.58962983e-002 5.35985194e-002
      2.16939807e-001 2.55999118e-001 2.55999118e-001 2.57464200e-002
      7.19943196e-002 1.01277128e-001 1.87856600e-001 1.71980813e-001
      1.35173842e-001 8.86206105e-002 3.24438699e-002 1.61978900e-002
      3.76387909e-002 1.44432336e-001 1.63303047e-001 2.05154508e-001
      1.25317931e-001 7.10936487e-002 6.06616698e-002 3.09235416e-002
      3.13602686e-002 2.51019359e-001 5.06524183e-002 5.73453680e-002
      9.76068899e-002 1.25567362e-001 1.10018209e-001 2.87379444e-001
      2.87379444e-001 2.87379444e-001 2.87379444e-001 2.03320101e-001
      8.83457810e-002 9.23149660e-002 9.95320603e-002 1.39142558e-001
      2.87379444e-001 2.87379444e-001 2.87379444e-001 6.17734492e-002
      1.33609310e-001 1.57284603e-001 1.32869542e-001 7.17206746e-002
      5.20761237e-002 4.85677496e-002 1.57844983e-002 3.53061296e-002
      1.86868280e-001 1.64172098e-001 2.68339962e-001 1.17862180e-001
      2.68339962e-001 1.20084018e-001 2.68339962e-001 1.33359537e-001
      2.10871965e-001 2.68339962e-001 1.85084760e-001 6.19210452e-002
      6.75309151e-002 6.86987266e-002 1.39311910e-001 2.21721902e-001
      1.73643976e-001 2.68339962e-001 2.68339962e-001 8.75068232e-002
      5.01586460e-002 6.28720596e-002 1.12436302e-001 1.41438931e-001
      1.74298674e-001 2.04508111e-001 2.68339962e-001 1.73677564e-001
      7.28379339e-002 1.61767036e-001 3.22783142e-002 1.26496509e-001
      4.19558249e-002 2.73941010e-001 2.24973872e-001 2.71916866e-001
      2.73941010e-001 1.19070351e-001 1.32761732e-001 2.60651913e-002
      4.72308695e-002 2.44100597e-002 2.73941010e-001 2.73941010e-001
      2.73941010e-001 1.56893283e-001 2.89475620e-002 1.33858128e-002
      1.65893622e-002 3.04984078e-002 1.78046431e-002 9.44556445e-002
      1.29130796e-001 2.04399377e-001 2.73941010e-001 3.91567647e-002
      1.90525651e-002 1.41219730e-002 1.67329796e-002 1.36768268e-002
      2.43960530e-001 2.73941010e-001 2.73941010e-001 2.53610581e-001
      9.07343403e-002 3.82198691e-002 3.92180383e-002 3.81600223e-002
      2.13305485e-002 2.09707066e-001 2.29414418e-001 2.53610581e-001
      2.53610581e-001 1.38847545e-001 5.51607460e-002 7.51638934e-002
      8.44942033e-002 4.64190431e-002 2.35579491e-001 2.53610581e-001
      2.53610581e-001 2.34257951e-001 5.66835217e-002 1.35831572e-002
      1.29757598e-002 1.76260732e-002 2.79940441e-002 1.92313984e-001
      1.91008866e-001 2.53610581e-001 2.53610581e-001 1.08230300e-001
      3.70673388e-002 2.79069636e-002 3.68214771e-002 5.95015995e-002
      2.53610581e-001 2.53610581e-001 2.53610581e-001 2.60485739e-001
      1.54832676e-001 5.83852306e-002 6.94010034e-002 9.54991132e-002
      5.65043725e-002 1.43095613e-001 2.05791369e-001 2.60485739e-001
      2.60485739e-001 1.32275969e-001 4.70701791e-002 8.31256583e-002
      9.36202407e-002 9.49003771e-002 1.13246590e-001 1.56610280e-001
      2.60485739e-001 2.60485739e-001 1.48008570e-001 4.81375903e-002
      4.81950268e-002 3.36330310e-002 5.78633025e-002 2.16661215e-001
      2.31340051e-001 2.60485739e-001 2.60485739e-001 2.02097490e-001
      8.91048089e-002 9.80570093e-002 4.56009060e-002 9.15318429e-002
      1.52718350e-001 2.04516545e-001 2.60485739e-001 2.24171788e-001
      1.37972713e-001 5.61993308e-002 6.36563748e-002 4.74041216e-002
      8.63407925e-002 9.88374799e-002 1.05991952e-001 1.84595481e-001
      2.43611619e-001 1.98190436e-001 1.36362940e-001 7.37470090e-002
      7.27170333e-002 5.60461767e-002 7.43980333e-002 8.46808031e-002
      2.06634372e-001 2.43611619e-001 2.43611619e-001 1.56866446e-001
      1.26647204e-001 1.15761429e-001 9.36562046e-002 1.75217837e-001
      2.14989915e-001 2.43611619e-001 2.43611619e-001 2.35173523e-001
      2.43611619e-001 1.60896733e-001 1.29305869e-001 6.14931062e-002
      1.13709435e-001 2.43611619e-001 2.43611619e-001 2.73700535e-001
      1.54821709e-001 1.41013011e-001 8.74675065e-002 5.92460521e-002
      4.30993177e-002 5.42525277e-002 7.78665990e-002 2.25197092e-001
      2.73700535e-001 1.47830710e-001 2.45885924e-001 1.27758116e-001
      1.54488727e-001 1.29952461e-001 1.81223586e-001 1.38117984e-001
      2.73700535e-001 2.73700535e-001 1.07961595e-001 1.23223938e-001
      6.30201548e-002 2.69965976e-002 1.64117664e-002 2.38697510e-002
      1.59212977e-001 2.73700535e-001 2.73700535e-001 8.29109102e-002
      9.48073938e-002 5.17484099e-002 7.96926543e-002 7.82038942e-002
      2.47473508e-001 1.22476980e-001 2.73700535e-001 2.46881321e-001
      7.14012682e-002 7.61264637e-002 5.62675558e-002 1.09382965e-001
      9.91975963e-002 1.84969693e-001 1.24888614e-001 2.45863304e-001
      2.74150848e-001 5.83070219e-002 1.76443420e-002 1.61132459e-002
      3.81494351e-002 6.34217858e-002 2.56896138e-001 1.29413337e-001
      2.54055560e-001 2.74150848e-001 4.94619943e-002 3.36443372e-002
      4.32833098e-002 9.24149603e-002 9.96296182e-002 2.74150848e-001
      1.34666562e-001 2.74150848e-001 2.74150848e-001 5.93042076e-002
      1.58773884e-002 2.21202113e-002 4.70795222e-002 6.29631802e-002
      2.74150848e-001 2.34193355e-001 2.74150848e-001 2.67176062e-001
      5.38359508e-002 2.24990509e-002 6.59824628e-003 5.88374957e-003
      6.10075258e-002 2.72298008e-001 7.42767677e-002 2.14063630e-001
      2.81189054e-001 8.75902921e-002 3.78957838e-002 8.96498784e-002
      1.91099476e-002 7.69731477e-002 2.13609964e-001 6.15757741e-002
      2.81189054e-001 2.81189054e-001 4.26719859e-002 8.10197834e-003
      4.88911476e-003 1.23527488e-002 5.18521406e-002 2.81189054e-001
      2.12516591e-001 2.81189054e-001 2.81189054e-001 5.45260832e-002
      2.10818369e-002 5.62161840e-002 2.17299499e-002 5.06569706e-002
      2.81189054e-001 1.67900413e-001 2.81189054e-001 3.01750034e-001
      1.16188526e-001 3.70219536e-002 1.72074780e-001 3.13517079e-002
      1.35843039e-001 1.33488968e-001 7.56668597e-002 3.01750034e-001
      3.01750034e-001 1.14190608e-001 1.74769256e-002 1.84265912e-001
      2.84429155e-002 1.58855215e-001 7.51510784e-002 2.96329875e-002
      3.01750034e-001 3.01750034e-001 1.06067419e-001 3.40133682e-002
      8.31154808e-002 2.25556362e-002 6.12230562e-002 2.08711058e-001
      1.63425997e-001 3.01750034e-001 3.01750034e-001 1.05832696e-001
      6.93518594e-002 5.95980547e-002 5.83561733e-002 7.66145140e-002
      1.12978593e-001 5.97055294e-002 2.30816722e-001 2.97946662e-001
      2.02863157e-001 3.37267891e-002 2.91685343e-001 4.36033458e-002
      2.18218997e-001 6.07788302e-002 1.21414931e-002 2.97946662e-001
      2.97946662e-001 1.87740013e-001 6.82408661e-002 2.88967192e-001
      3.58144902e-002 1.90325812e-001 7.97433257e-002 5.74934296e-002
      2.97946662e-001 2.97946662e-001 1.13296248e-001 1.05342947e-001
      9.69749689e-002 9.63508189e-002 7.79936016e-002 1.81270167e-002
      1.87324695e-002 2.24970341e-001 2.09588096e-001 9.64841172e-002
      8.95266235e-002 8.87424201e-002 5.20757399e-002 2.71570571e-002
      3.39955837e-002 6.31055459e-002 1.55380368e-001 3.01095933e-001
      1.40802592e-001 9.74513814e-002 2.91439205e-001 6.37611598e-002
      1.45916879e-001 1.16992675e-001 1.25691518e-001 3.01095933e-001
      3.01095933e-001 1.07964300e-001 1.39882445e-001 1.48552254e-001
      1.88675985e-001 1.18299432e-001 1.54641256e-001 2.18591005e-001
      3.01095933e-001 2.04441935e-001 8.25277567e-002 7.99811855e-002
      1.10321283e-001 6.44817278e-002 2.65492201e-002 6.27249777e-002
      1.05691254e-001 1.74464241e-001 2.84000814e-001 7.74517730e-002
      3.27550657e-002 9.17012393e-002 1.13700032e-001 5.32979704e-002
      9.21269879e-002 1.48757488e-001 1.74847648e-001 7.97495320e-002
      3.75628732e-002 3.98744531e-002 3.15743163e-002 4.93180603e-002
      1.34044617e-001 1.83050469e-001 2.47911438e-001 2.26010054e-001
      2.53890306e-001 8.65253136e-002 8.05282891e-002 3.51956002e-002
      4.30870131e-002 7.48737752e-002 1.32530496e-001 2.69045055e-001
      2.81968385e-001 2.81968385e-001 2.68881768e-001 8.80931020e-002
      3.64257060e-002 3.02939396e-002 9.03525725e-002 1.21496081e-001
      1.36356473e-001 1.60059735e-001 2.81968385e-001 2.81968385e-001
      1.03033982e-001 2.46170498e-002 2.87412480e-002 5.50111607e-002
      1.09560624e-001 2.63145268e-001 2.81968385e-001 1.22250609e-001
      3.98073085e-002 3.56681235e-002 3.70851606e-002 4.62064892e-002
      1.83570590e-002 3.26804519e-002 8.68107006e-002 1.59760281e-001
      2.48534545e-001 2.01384455e-001 2.48534545e-001 1.22784786e-001
      1.10575512e-001 4.39969636e-002 7.28461668e-002 1.51054054e-001
      2.48534545e-001 2.26570815e-001 5.94263151e-002 3.78799923e-002
      7.02344850e-002 9.25308615e-002 9.89894420e-002 6.94840327e-002
      1.34077758e-001 2.48534545e-001 2.48534545e-001 2.39939943e-001
      2.48534545e-001 2.27773771e-001 2.29047373e-001 2.48534545e-001
      2.48534545e-001 1.53564423e-001 2.48534545e-001 2.25111559e-001
      1.35333091e-001 1.53180152e-001 4.02549654e-002 2.90498957e-002
      1.55153926e-002 2.14986410e-002 9.12415683e-002 2.48827934e-001
      2.48993441e-001 6.48966506e-002 4.08110358e-002 1.57431681e-002
      2.55331304e-002 6.18086196e-002 2.25603804e-001 2.30239078e-001
      2.48993441e-001 2.48993441e-001 2.03774735e-001 2.03309774e-001
      7.55680874e-002 5.53302281e-002 9.51783732e-002 1.88333392e-001
      7.62500316e-002 2.48993441e-001 2.48993441e-001 2.00202912e-001
      1.27474904e-001 4.28338684e-002 7.72255436e-002 1.22720361e-001
      2.48993441e-001 2.48993441e-001 2.48993441e-001 9.07385871e-002
      2.23494228e-002 2.48360597e-002 8.30142759e-003 1.96608976e-002
      9.67596620e-002 2.32345745e-001 2.02010840e-001 1.71945736e-001
      2.32345745e-001 7.89264962e-002 6.24544024e-002 2.58606318e-002
      2.07775608e-002 8.41286033e-002 2.26430878e-001 1.24026157e-001
      1.74298644e-001 2.32345745e-001 1.32723555e-001 1.64949998e-001
      5.80887571e-002 1.05278730e-001 1.75580263e-001 2.32345745e-001
      2.32345745e-001 2.32345745e-001 2.32345745e-001 1.82240471e-001
      2.32345745e-001 1.60697818e-001 1.28730193e-001 1.82339475e-001
      2.32345745e-001 2.32345745e-001 2.32345745e-001 2.43617088e-001
      9.76796970e-002 3.75684835e-002 2.17963140e-002 2.86811870e-002
      4.67691682e-002 1.68971986e-001 1.00415535e-001 1.75401226e-001
      2.43617088e-001 5.42916432e-002 2.33074818e-002 1.02960989e-002
      3.96960452e-002 2.87661329e-002 5.76834865e-002 8.99419934e-002
      2.19944760e-001 2.43617088e-001 2.43617088e-001 2.43617088e-001
      2.04937965e-001 1.46904454e-001 1.55036986e-001 2.43617088e-001
      2.10662752e-001 2.43617088e-001 2.43617088e-001 2.43617088e-001
      2.43617088e-001 1.42672196e-001 1.22261845e-001 6.75465837e-002
      7.73252770e-002 1.31344795e-001 2.43617088e-001 2.76757449e-001
      8.10048431e-002 3.62194702e-002 1.35066248e-002 2.05485113e-002
      1.03108604e-002 2.51508020e-002 9.62714925e-002 2.76757449e-001
      2.62305588e-001 1.06646515e-001 2.18217708e-002 1.18178092e-002
      3.61324549e-002 3.11085228e-002 4.79724668e-002 1.38792828e-001
      2.76757449e-001 2.76757449e-001 2.76757449e-001 2.19443262e-001
      6.09160475e-002 6.53547645e-002 2.08384823e-002 4.40372936e-002
      1.11966103e-001 2.76757449e-001 2.76757449e-001 2.76757449e-001
      2.15021417e-001 2.10185666e-002 1.09005645e-001 5.41917309e-002
      1.29407719e-001 1.88352212e-001 2.76757449e-001 2.08960250e-001
      5.03788590e-002 6.30058954e-003 6.30150968e-003 2.58115754e-002
      2.44263038e-002 5.47711663e-002 1.13331631e-001 2.80069649e-001
      2.80069649e-001 6.72007650e-002 1.54920574e-002 1.27453748e-002
      1.54850278e-002 2.55553778e-002 1.41535148e-001 1.16673522e-001
      2.80069649e-001 2.80069649e-001 2.80069649e-001 7.51228333e-002
      1.14991954e-002 5.86910173e-002 2.67738178e-002 1.34836987e-001
      2.18608737e-001 2.80069649e-001 2.80069649e-001 9.75391343e-002
      8.39207470e-002 8.36344957e-002 9.36665237e-002 4.16388139e-002
      2.80069649e-001 2.80069649e-001 2.80069649e-001 2.64285773e-001
      8.58028010e-002 2.17789002e-002 1.17973285e-002 1.40860416e-002
      2.81978417e-002 2.17049569e-001 1.25117406e-001 2.64285773e-001
      2.64285773e-001 1.25436202e-001 5.32459170e-002 4.91676517e-002
      5.37384823e-002 3.59260812e-002 1.25230551e-001 1.28494814e-001
      2.64285773e-001 1.85736686e-001 6.00606352e-002 1.05448209e-001
      8.16587284e-002 1.05834521e-001 7.89269283e-002 2.64285773e-001
      2.64285773e-001 2.64285773e-001 2.64285773e-001 8.46774802e-002
      5.56018353e-002 5.88773303e-002 9.94045660e-002 7.43866190e-002
      2.64285773e-001 2.59480685e-001 2.64285773e-001 1.91160783e-001
      1.26105532e-001 1.24115437e-001 1.35360986e-001 1.87053233e-001
      9.24388245e-002 1.26322359e-001 1.53673455e-001 2.27959856e-001
      1.82557672e-001 1.09937482e-001 1.67494968e-001 1.75741270e-001
      1.98283225e-001 1.45481601e-001 1.43483534e-001 1.79535285e-001
      2.27959856e-001 2.18642160e-001 8.53288248e-002 6.61766231e-002
      1.11350723e-001 1.46249250e-001 1.01618335e-001 1.78976387e-001
      1.30132914e-001 2.27959856e-001 2.27959856e-001 7.78615847e-002
      7.44173750e-002 1.20708443e-001 1.64191231e-001 2.03353330e-001
      2.27959856e-001 2.27959856e-001 2.27959856e-001 2.88735598e-001
      6.56204149e-002 7.09303617e-002 7.01316148e-002 5.36403432e-002
      7.30291680e-002 7.52234831e-002 1.52541414e-001 2.88735598e-001
      2.88735598e-001 6.17483482e-002 2.12888345e-002 1.31457299e-002
      1.36134084e-002 4.92643528e-002 2.39025652e-001 8.67841989e-002
      2.88735598e-001 2.88735598e-001 1.36892959e-001 4.25957255e-002
      4.95959669e-002 7.68606365e-002 1.20865978e-001 2.34930471e-001
      2.66073287e-001 2.88735598e-001 2.88735598e-001 1.14396736e-001
      4.86511849e-002 2.42121145e-002 3.93050350e-002 3.71135622e-002
      3.62613089e-002 1.31396458e-001 2.88735598e-001 2.88798094e-001
      5.14394641e-002 1.91763602e-002 2.55899187e-002 2.91472767e-002
      7.02646002e-002 2.87506700e-001 6.45098537e-002 2.88798094e-001
      2.88798094e-001 9.39575136e-002 1.71628073e-002 2.64557172e-002
      2.48927269e-002 5.09024896e-002 2.88798094e-001 2.23700956e-001
      2.88798094e-001 2.60295480e-001 6.75099641e-002 6.20520115e-002
      4.54445854e-002 3.39354910e-002 2.28440352e-002 3.58230881e-002
      1.06742643e-001 2.88798094e-001 2.88798094e-001 1.41302362e-001
      1.52288884e-001 1.07938729e-001 7.72963762e-002 3.74270268e-002
      7.68478960e-002 9.92935598e-002 2.88798094e-001 2.76449323e-001
      1.31466851e-001 2.04202235e-002 2.38821637e-002 4.22384329e-002
      3.68813500e-002 2.76449323e-001 2.76449323e-001 2.76449323e-001
      2.76449323e-001 1.43307626e-001 8.53295475e-002 1.11783057e-001
      7.61130303e-002 4.57174033e-002 2.49070823e-001 2.52422661e-001
      2.76449323e-001 2.68233329e-001 1.38467178e-001 8.63177031e-002
      5.48610203e-002 6.42271042e-002 4.15928140e-002 1.01761892e-001
      1.23353764e-001 2.42267922e-001 2.16541767e-001 1.13103844e-001
      6.62333965e-002 8.08819383e-002 7.66713172e-002 2.48705186e-002
      8.78658965e-002 1.43426627e-001 2.14995906e-001 2.76535958e-001
      2.28157029e-001 1.59890383e-001 1.78632826e-001 9.61751267e-002
      5.29896915e-002 1.95830405e-001 1.71538666e-001 2.76535958e-001
      2.76535958e-001 2.02085510e-001 1.94434345e-001 1.00722469e-001
      1.06938623e-001 6.53376952e-002 1.08624741e-001 7.86008388e-002
      1.86942667e-001 2.76535958e-001 1.78325117e-001 1.49961114e-001
      1.57960221e-001 1.27110228e-001 3.56903896e-002 7.79716447e-002
      1.21063314e-001 1.89551637e-001 2.73439676e-001 1.44568786e-001
      1.03139274e-001 8.92703161e-002 5.92275448e-002 3.80152389e-002
      6.71291947e-002 1.20539695e-001 2.30141878e-001 2.67902553e-001
      1.99070603e-001 2.18674228e-001 1.06651857e-001 1.15827046e-001
      6.90333918e-002 5.57794087e-002 7.48111233e-002 2.50468791e-001
      2.67902553e-001 1.88529342e-001 1.35763422e-001 1.12370893e-001
      6.56650290e-002 3.64296623e-002 9.16978046e-002 7.11666048e-002
      2.67902553e-001 2.67902553e-001 1.99482650e-001 9.36074853e-002
      4.72452529e-002 4.48504277e-002 3.77174988e-002 9.27291438e-002
      1.69804037e-001 2.67902553e-001 2.67902553e-001 2.51794636e-001
      1.13694854e-001 4.77108099e-002 5.50600253e-002 5.78421392e-002
      1.61543518e-001 1.34269685e-001 2.67902553e-001 2.42727086e-001
      1.69798449e-001 1.11130796e-001 1.44215167e-001 3.93799692e-002
      3.77588607e-002 9.74434838e-002 1.25748545e-001 2.42727086e-001
      2.42727086e-001 1.46702558e-001 7.60831013e-002 1.22642107e-001
      7.46680945e-002 4.66639102e-002 8.84368271e-002 1.84656158e-001
      2.03947827e-001 2.42727086e-001 2.42727086e-001 1.36886880e-001
      4.24588993e-002 9.54177007e-002 9.50546488e-002 1.75431594e-001
      1.31399363e-001 2.42727086e-001 2.42727086e-001 2.42727086e-001
      2.41304711e-001 9.40211490e-002 1.99624777e-001 9.97341499e-002
      1.28294975e-001 1.64993644e-001 2.34714106e-001 2.81863421e-001
      2.09638283e-001 9.56108943e-002 4.41584811e-002 1.10532194e-002
      2.67819837e-002 2.34083142e-002 5.96285313e-002 2.29859442e-001
      2.81863421e-001 2.61376292e-001 1.40274197e-001 5.69231026e-002
      3.35694812e-002 3.04604303e-002 3.48200426e-002 1.20373957e-001
      2.81863421e-001 2.78099179e-001 9.54041556e-002 5.66912293e-002
      5.02245612e-002 4.68742102e-002 9.67940092e-002 1.47845641e-001
      2.01054215e-001 2.81863421e-001 2.81863421e-001 2.14992419e-001
      1.45527095e-001 9.42945629e-002 6.72929734e-002 8.48078057e-002
      1.24695346e-001 1.70604378e-001 2.81863421e-001 1.76486537e-001
      6.12772964e-002 5.92143126e-002 9.75416899e-002 1.32394224e-001
      1.03299879e-001 6.09292127e-002 1.59718767e-001 2.35413775e-001
      1.88970044e-001 7.43200704e-002 1.06784061e-001 1.48998156e-001
      2.35413775e-001 2.35413775e-001 2.35413775e-001 1.97657123e-001
      2.35413775e-001 2.35413775e-001 1.50533214e-001 1.88675031e-001
      2.34828770e-001 1.44209564e-001 3.02680526e-002 2.95715928e-002
      6.92031831e-002 2.16758847e-001 2.35413775e-001 7.95601755e-002
      1.70364246e-001 2.35413775e-001 2.35413775e-001 1.23956993e-001
      4.52706777e-002 9.13832784e-002 1.75322518e-001 2.23283261e-001
      1.11406036e-001 8.58342052e-002 4.67084572e-002 5.96458167e-002
      9.55170691e-002 2.16330931e-001 1.33208558e-001 2.73419678e-001
      2.73419678e-001 2.05011204e-001 1.17388256e-001 3.18092592e-002
      1.09994538e-001 7.40193203e-002 2.73419678e-001 2.73419678e-001
      2.73419678e-001 2.28957847e-001 5.21228798e-002 2.64556948e-002
      4.18007970e-002 6.46368638e-002 5.77023998e-002 8.55459943e-002
      7.58355558e-002 1.02884121e-001 2.73419678e-001 8.29307958e-002
      1.69928037e-002 6.18149899e-003 5.67678362e-002 4.27605659e-002
      2.73419678e-001 2.73419678e-001 2.73419678e-001 2.32561871e-001
      1.15344092e-001 1.45679399e-001 3.91250923e-002 1.52102455e-001
      9.49187577e-002 1.91857874e-001 1.88901395e-001 2.32561871e-001
      2.32561871e-001 1.39434814e-001 2.06577703e-001 1.14973396e-001
      1.77162573e-001 1.59005553e-001 1.92215398e-001 2.08432943e-001
      2.32561871e-001 2.32561871e-001 3.12337596e-002 2.78730895e-002
      5.37292799e-003 7.78345019e-002 5.67717180e-002 1.94667831e-001
      1.89592913e-001 2.32561871e-001 2.32561871e-001 4.55798693e-002
      1.05029695e-001 6.76451772e-002 1.06036112e-001 1.21576391e-001
      2.06546396e-001 2.01568902e-001 2.32561871e-001 2.32713223e-001
      2.32713223e-001 2.32713223e-001 1.74868330e-001 1.51765198e-001
      1.56293124e-001 1.63372949e-001 1.50440529e-001 1.76807597e-001
      2.32713223e-001 2.32713223e-001 2.32713223e-001 1.54575497e-001
      1.14423625e-001 9.66095924e-002 6.45060614e-002 7.73542747e-002
      1.98980719e-001 2.32713223e-001 1.37335464e-001 1.31363466e-001
      9.79973748e-002 7.16699064e-002 9.98223349e-002 1.69857040e-001
      1.46163285e-001 2.05761150e-001 2.32713223e-001 1.62218407e-001
      1.40739575e-001 6.40497282e-002 4.83227596e-002 1.03764243e-001
      1.25414252e-001 1.52197152e-001 2.32713223e-001 2.55030006e-001
      2.55030006e-001 2.38894507e-001 1.09210223e-001 1.33683354e-001
      7.58047923e-002 4.08595987e-002 6.96705505e-002 1.86968699e-001
      2.55030006e-001 2.55030006e-001 2.07552835e-001 3.96125540e-002
      1.29780188e-001 5.83105199e-002 1.04631327e-001 1.24218173e-001
      2.55030006e-001 2.54961133e-001 9.70252305e-002 9.64123458e-002
      7.94199556e-002 8.16267505e-002 9.80669111e-002 8.46100226e-002
      2.33729795e-001 2.55030006e-001 2.55030006e-001 8.75405073e-002
      5.87490834e-002 5.06668203e-002 7.22176954e-002 6.92222789e-002
      7.34102353e-002 2.33658001e-001 2.55030006e-001 2.41835102e-001
      1.99384198e-001 8.87847319e-002 1.41399112e-002 6.89784586e-002
      3.92799862e-002 1.15437791e-001 1.80161431e-001 2.41835102e-001
      2.41835102e-001 6.75064996e-002 1.45584077e-001 8.80184472e-002
      1.46648914e-001 5.56976944e-002 1.86602235e-001 2.41835102e-001
      2.41835102e-001 1.74888954e-001 9.99466032e-002 1.00924619e-001
      6.08699471e-002 1.59285992e-001 9.80259553e-002 8.87560472e-002
      1.15362607e-001 2.41835102e-001 2.41835102e-001 1.62323430e-001
      2.41835102e-001 1.30011424e-001 2.41835102e-001 1.24917939e-001
      9.45402309e-002 2.03626156e-001 2.41835102e-001 1.34981185e-001
      8.02398250e-002 1.55930862e-001 1.10036276e-001 1.19708069e-001
      4.75102887e-002 2.10763335e-001 2.18644962e-001 2.12222889e-001
      1.77987948e-001 1.32537141e-001 1.67341784e-001 1.04335062e-001
      1.66009322e-001 6.51003197e-002 2.13740364e-001 1.67410910e-001
      2.18644962e-001 2.18644962e-001 1.81014702e-001 2.18644962e-001
      1.45455182e-001 1.55244410e-001 4.50357944e-002 6.70093596e-002
      1.53327733e-001 2.18644962e-001 2.07826421e-001 2.18644962e-001
      2.18644962e-001 2.04873741e-001 2.13980943e-001 3.23380455e-002
      7.52245113e-002 1.29901826e-001 1.99549928e-001 2.34338626e-001
      1.45281956e-001 1.35533094e-001 8.75963718e-002 2.34338626e-001
